-0.21166385848585
-0.450673503310047
0.464822899627357
-0.888229962306965
-0.6137278526052
0.174359805596306
0.553070473868137
-0.746854966727581
-0.623893878250556
1.6192872887565
1.73447391193005
1.31549527623109
-1.35127235808609
0.610964034735339
1.40455292557726
1.06852246485454
0.115080836712074
0.0303383685568968
-1.46362598950282
0.352811270822013
-0.479295381171245
-0.662194311592777
-0.320546341092173
0.174294609878662
-0.641743085101819
-0.280515700344614
-0.629535559417374
-0.872534418671992
1.0983728642734
0.209574590214149
0.245622517468316
0.229527753352657
-0.114643751895459
-0.762460583796637
0.517634862158992
1.51401855325127
-0.44663853110119
0.708207288070481
0.718945276286057
-1.68413727017975
0.734055584693923
-0.718213727670098
-1.3137170554052
1.85547087716725
-3.49624275289418
2.21661038609883
0.599192676335392
0.739079128127195
1.3069886280307
1.24564345707549
1.38573333611581
0.422399981146339
1.90517831649859
-0.0867290824784913
0.168426810040139
-0.797957767404367
-0.589558247702803
-0.220613724065405
1.55090215872174
0.0784687990088621
0.417832929744481
0.880788995009694
-0.0637283081959996
0.645761666267536
-2.46802688321688
-0.00488756347727717
0.732156008114181
1.93327367110008
-0.0552161056155391
-1.85877191401675
0.183731488534967
1.10532198859932
0.249256771256567
-0.47601566611052
1.71454185980526
0.274083892883518
0.72136535433425
-0.228245776431001
0.79347487978316
-1.21456246942802
-0.409020438772403
1.43372682966517
0.676912971482902
0.925250545442758
-0.287386452980939
0.436514542238722
0.228577791859665
-0.137092781357105
-0.0994778920181184
1.35320823241415
-1.11827305357221
-0.996409422982482
0.996347479680352
1.02188230028055
1.38966821667199
-1.61248869063556
0.40829732584147
-0.36942858840491
-1.16663592551019
-0.0669701243298136
-0.019654202716515
-1.11486209133706
0.875854715943191
0.237299477911843
-1.22159846308063
0.136798153514216
0.315315942706516
-2.66910013535387
1.00613994087059
-0.0261848240906873
-0.0201970131918745
0.8075734311672
-0.458809916077623
0.298461678960203
-0.565429667182024
-1.00944325287221
-0.944016958328964
-0.966276852982278
-0.883430308281132
0.154016428516981
0.278663177215549
0.281215541546238
-1.49220214147314
0.871828240423781
0.983842264595409
0.398514884909819
-0.714355640939631
-1.00674492155589
0.917421507562556
0.725280788811474
-0.0105631660548478
0.607334179525659
1.33361236948222
-1.08622515174844
1.69733209393408
0.0190710788732411
-0.956721266822226
-0.0333633531867854
0.526619248071886
-0.150838978086154
-0.878781642702703
0.17730747833681
-0.101192305852723
0.588120409856686
-0.517409357674574
1.61555806847872
-0.307600079056167
0.356541142311375
-1.49233127377937
1.29088639042427
-1.67210621025288
-1.78910148104408
0.337452046798675
0.186326593418244
0.117989617929959
0.847600007364136
-0.401299070854394
-0.389209418891895
0.29720959668284
-0.39431771563117
-0.359448335074362
-0.674326717581753
1.9403848254364
0.226875933037239
0.991657168497659
0.897807665660278
1.14650465869077
-0.425475127746082
0.448754930445946
0.20244044705121
-1.17066596248502
-0.987756173132697
-0.812561991496123
0.0743331568968581
-0.641625489548123
0.55114940115663
1.25940697318155
1.02063175649029
0.79351100128687
-0.150753881122031
0.249759217167341
1.13689156010102
-0.30888787679588
0.637610110373899
-0.0439409741526976
0.841404126555431
1.87323086691413
1.08569887622323
0.924207547487033
-0.446437602236256
0.00348135110579413
0.505656075153238
-0.563587946694175
1.00310854238024
2.96923682409473
0.264419175070967
0.632473896222894
1.47003117663802
1.47211993172038
0.228952124467535
-0.922406843728809
0.26521204217029
1.08803835078777
0.0560072920861789
0.456887107248877
0.0644650505069551
1.8492963424068
-0.727694212442363
-0.159431118537887
1.22606743921461
2.08303736199076
-0.742555832707979
0.474854030532713
1.32168195103528
-0.667198072252956
0.337829639604771
-0.15644776796968
0.285938967738803
0.560881222025356
-0.264382473955079
1.2468356547627
0.648782875922465
-1.13283578607014
0.0573575707932944
1.33806293095599
-0.819588335231174
-1.88523867643028
0.383008316709935
2.12017150061949
-0.466033591581038
0.321955092467168
0.662200926709926
-0.148709364477342
-0.0859537444387897
0.62948716413716
-0.71540364293832
-1.90284383744834
1.47750803025789
-1.21618519362435
-1.29632565835889
0.364238960219655
-0.391121416808984
1.47361767129308
1.14716544193339
-0.63217572631068
0.39861465471023
0.475709015621494
0.787874386153276
0.310173527184544
1.7101293220832
0.0772549331937743
-1.6697159443892
0.277224536012158
0.419381728226509
-0.770883160414052
1.38883320300581
0.772408580877477
1.53306233134767
1.07326677704565
-0.620964694648986
1.32375138762748
-0.214375722814416
-0.40948441068061
-0.00174635330449688
2.95736794998144
0.2736987111717
0.378547771900247
-0.537464258370154
-0.820630495946031
-1.33845610333793
0.93086146913494
0.359960535775344
-1.07495827178979
0.66306348576482
-0.484622324020395
2.64674059083607
-2.15362597561184
-1.40104549395144
0.978724330816703
0.733268023609721
0.234786081589453
-0.594537334880448
-0.796181802997019
0.749386788322859
0.26769688960005
0.252170216739615
-1.37861016058812
-1.53134969402947
-1.92453763117038
0.664179964635787
-0.0196928652888076
-0.309630987341971
-0.852630862914676
-1.03084249175615
1.72353118368354
2.47692814659424
-0.774975476898297
-0.0198706721664319
0.042103287726195
0.120714754045502
-0.648625289848288
0.816717858873811
-0.687748767204386
0.367945694231987
0.00998542428907656
0.769754591980096
0.169469505559968
-0.348952197681887
0.253176863350812
0.502424927506616
0.432122557831162
0.798663772744363
-1.27801569383204
-2.28733537116664
2.39698329893611
0.303927736430429
0.344833095900474
1.57495847751097
0.733897909347864
0.938224966523684
0.724833681563336
1.47372842677135
-0.374523449651788
0.215212666635132
0.0504282964803171
0.719537402276563
-0.656042806724487
2.08724830161446
0.099605850451574
1.22133098045159
-0.652787337103436
0.902496807047897
1.2615433415216
0.515072816578234
-0.180046503282885
0.768295989863436
-0.946863058874228
-0.581621319693734
0.491578379777318
1.11279672022023
1.39086432105696
0.877375671583168
1.9815615189669
0.181523716997371
0.0981829308674828
0.90834731385317
0.0703556103171566
-0.111707496757611
0.472985949300353
0.0402388591251844
1.09403410004811
0.484426629139376
1.67495046762978
0.19475282743379
-0.46810581178775
0.230349016725876
-1.19087897535411
-1.58264216804323
0.31248675504334
-0.758357744333292
0.824819858201452
0.692081463601507
0.210999719129338
0.985141692731278
0.190281567431945
-0.313770476220885
1.0769841358205
0.105998706846238
-0.962146957804952
1.53739632535699
0.776126716346495
0.517572294199888
-0.0237156823785974
-0.279766542665499
-1.35629706446166
0.504723584393164
1.21260755933161
0.491747858646459
1.15649790028507
-0.406472017195402
-1.53973200155387
2.48621888835263
-0.782998478798795
-1.83019655363518
-0.588196496512457
0.534865808182871
1.70062675910019
0.981097288367136
0.687325032183841
0.877250350632802
0.316277090576673
1.29107847508669
-1.40588635426286
-0.906225349910125
-0.49416018234003
0.351726504092653
-1.27629678546775
0.321196298766695
-0.780488537803919
0.313783427689085
2.29272496091135
0.444193827014168
-0.166163286750757
3.16830601911998
0.142410508197555
0.47711744529609
0.110972203980261
0.0513722515126259
1.56487783105612
0.277755979893295
-1.92663179820961
-1.48205451148371
-0.418440047061029
1.19510704359116
-0.717673347631153
-1.6857338833546
-0.690376932361456
0.722523747721272
0.485640682767536
0.209679895446519
1.01540949550836
-2.69318422722355
1.16867624233428
0.526302520486745
-1.2903763545423
0.149387917868745
1.08071732945936
-0.0413916604181967
1.64124142189234
-1.52222594388875
-0.398269523769579
0.528788407719069
0.506124831998285
0.136883294357717
1.54842958395238
0.630618582380776
-1.33704846252576
0.507785399926017
-0.577400739190481
-0.418001441888352
0.766904906082271
0.317005131212339
-1.59724919647773
-0.458394393451938
-0.67269037634688
2.20407453400464
1.67778227621153
0.365960912608437
1.69731779708188
-1.40909432322976
0.239764577173926
1.05620675307507
-1.44209645760963
-0.81883304547667
-2.57003769506926
1.01860931364758
1.03997837230718
-0.631173152390223
-2.23777190709247
-1.27666173066764
-1.14704396464687
2.09350424726118
0.118015170165782
0.583418624565727
1.03190475019818
0.375212237695567
-1.27669436491518
-0.343597535453873
1.0503282250512
1.56829378326933
-0.504450685330532
-0.881399253265968
-1.58710796548431
-0.54491986849616
0.818218876588264
-0.246391099994627
-0.815166727224929
-0.00158486260837495
1.75443800423914
-0.426075727592288
0.0975264279171329
0.790917411439053
-0.347089088349077
-0.373867265264074
-0.284594038915033
1.53110618907071
0.603001951371759
0.264264002415793
0.203497993953153
-0.492770803838265
0.16045132654421
-1.45722084568113
-0.968052423399834
-1.35624594222741
-1.09363226472617
0.0932750334129744
0.651838233470915
-0.720805304085575
0.342894999312924
0.429463203793648
-0.0542546775761836
0.398534246959011
-0.302007612009536
-0.0604606170023781
0.260541051656097
0.149871453309697
-1.20780704764516
-0.628334937076384
-0.890594279377951
0.461860391415313
1.98633125662271
0.293868274154029
2.37034528393628
0.423394097576734
-0.587059961140378
-0.892483050454302
1.43644885871136
-0.384347611158333
0.0165270469387452
1.58547945041513
-0.978723780194803
-0.155595757205774
1.08365077206236
1.58327072466838
-0.349324491337538
-0.555691798939327
-0.293304381056846
0.0214773786051355
0.385331125293375
-1.56252447871426
0.381408861133153
-1.95042025206092
-0.107772945922639
-0.651733351516149
0.29263837993481
-0.279976492579009
-0.385883038184984
0.945997436422064
-1.02755091824076
-1.5152835649143
-0.607197399971627
0.431979740645199
-0.314147720702886
3.45024212582638
0.262744612225645
0.893612368621708
0.974692075845465
0.405125571362341
-0.786991047469714
1.23281234129632
-1.10059527890665
0.199258537384704
-0.752174667095002
0.857544699348057
0.133173186208471
-0.627789684439988
-1.13156599247614
1.94871643732694
1.11750651712313
0.86167362732479
0.993721773309053
-1.01144400505691
1.49780298732885
-1.70796375013839
0.835323040488431
0.071851836578067
1.03523705063293
-0.787777878352171
2.20834093970873
1.03214119065191
3.31368726614242
0.698769831695933
-1.12376606367002
-1.68522626299046
1.54030464058315
1.62063581110567
0.000393379602394217
-0.626561597762072
0.602133073075405
-0.247677657937095
1.3580039491665
0.521999129702313
0.760522128662039
-0.144999845810976
0.585767651018725
0.361841339347564
-1.1655029634465
-1.1265647111969
-0.551421002045325
-0.0539226105724545
0.689418653413087
1.23648910552698
0.273459688773676
0.0633658872205956
0.240292073073353
0.447397158543399
-0.182776468843946
1.80829904120497
-3.28970282682519
2.62381031582921
-0.241376150701224
-0.720603745088263
-0.664158365077984
-0.364177066798458
-0.143370275630518
-0.439751022096771
-0.119369457611405
-0.0228386319632277
1.54974889755994
0.3504785295018
1.33157747848327
-0.799587427823919
-1.06499299839403
-0.874253056035984
-0.552559840578786
1.60604903709087
0.888864799867678
0.127487607447452
-0.485469216524658
-1.36280579620231
-0.529599560753762
-0.752420449839315
-0.12492458040239
-0.83808875360373
1.62523759901777
1.85831645264754
-0.340312099563841
0.564436942711668
0.285733045745547
0.817817808477199
1.09498618209684
1.67611009327106
-0.83549292783368
0.738981855188057
-1.38762067633546
-0.402740817452076
0.00922984281366281
0.710759963480522
0.797284476655496
1.41289302275852
-1.21201706180927
1.2901427520367
1.26515944449004
0.0868933561139262
-0.231006375965653
0.816739405901579
0.439267476709592
-0.944094111381412
-0.773785318264697
-0.905768498714766
-1.13544987075241
-0.613571769536955
2.17936130238016
1.1179585521597
0.640088570236352
0.863760920960838
0.569117663542163
0.520483586797685
-0.677005512790517
-0.041850236958229
-0.75927287007473
0.853078642033042
1.08244583567806
-2.04389768611376
0.703487859819833
0.52503454164306
0.156270998655011
1.51223259729353
-1.2745163039162
-0.264993816704971
-0.381491799399186
0.268936431974606
2.02915011532314
0.0703894655018049
0.0319335436678691
2.02324774086669
-1.28970082889107
0.327530901384785
-0.0847962705221307
-0.820465766781579
-0.577731218903999
1.16630026571819
0.6957849584422
0.523468154180042
0.292288973637495
-1.73126348365494
-0.656985845657435
1.4370232942825
-0.0331526289534235
1.01494615935777
0.193885888074134
0.0674694912085062
-0.885095481068252
0.513489074524857
1.15531604877192
0.808326251843559
-1.43870937918533
0.247318363000578
-0.311998826442663
-0.931287159852701
1.38968252746142
-0.0934831822406074
1.74230561504681
-0.18016269694133
-0.0633869541690009
1.76751496800506
0.600549235760087
0.751435103323848
-0.682772071362587
1.17123079398279
0.58840476360745
-0.475204309823101
-0.139868165404009
0.899093519093211
0.673484843373373
0.253865976545498
1.41783144134476
-0.842380518728468
1.68207315252502
-0.101175640460305
0.119065283028386
0.546734242902296
0.416645049198883
-0.530448006284792
0.112208906022296
0.227099674674168
1.07468320917068
0.102474643700721
2.02150604235394
0.804942857238983
0.375735895669852
0.355416777175466
0.609928025211977
1.82796718997071
1.01313703439502
1.18847536383397
0.268526077540201
-0.523805443249719
1.62749334254554
-0.677587649250289
0.600006476678644
0.169688801627378
0.79066786227549
0.466587440662977
2.19112717455864
-0.658229122637453
-1.3705220463584
-0.432377432162712
-0.0436559198118097
-0.900606036865039
0.733766547572042
0.477009980203956
0.917192801643891
0.136177012760695
0.0629906792792856
0.716887839231752
-0.841664361811421
0.946610929976876
-0.464367190637567
0.255832242468649
1.33341182894741
1.36346157694821
-0.470367611796169
0.407237128904975
-0.23440255128469
-1.63930528487201
2.68520422985974
0.386590079109081
0.791283469715151
1.64213487979048
0.477891651627433
0.2198507822232
0.687159100304686
0.115410463415003
0.520069729251495
0.947386353883901
-0.860847031221966
-0.435652582140547
-0.37317274416182
1.1210115643102
0.173083064669685
-0.429801076220759
-0.0372517400717169
-0.94331529876869
-0.0689070727004156
-0.941393267455792
1.58052628261266
-0.336096812264542
-1.08626324378287
0.485221826761421
-1.00209609873575
0.819893093822209
0.441648708595012
2.03059129208748
-0.661493226885823
0.162852576070716
-0.274297805624527
0.0968820376164736
0.515062397508092
0.279709495145259
1.22289033566419
-0.180983471338391
0.618930849042309
-0.426270550118773
-0.601460160632481
0.936007154651601
0.24280061900968
1.45950914462544
0.297134401343032
-1.11883106272615
-0.25067624800866
-1.79791603668443
0.295932778625759
0.614869151930358
-0.00157655259566127
0.581844662813294
0.874523947690533
0.00937580363001614
-1.24499861868635
1.26203016271827
-0.00747398136065253
-0.822393729707489
-0.297166018152654
-0.129087703403237
0.115054137080583
-0.198218081117591
0.370992861972815
-0.145971052934714
-1.51099118963159
0.60427040929155
-0.584244611239658
-0.866022269695632
-0.858366621640917
0.523471915525115
1.40949586049438
0.749907025338849
-0.166651847804002
-0.687445850689302
-1.5041520435275
-1.04809577740322
-1.52569353880926
1.79524281748885
0.0889673194267667
1.90968717871893
1.09914491198228
-1.98840457569231
0.0716021237529606
-1.87791677346432
-0.881850723102674
-0.183619100386408
0.485648687050196
-0.855595358270273
0.757610439731613
0.100734548939471
-0.599789533155595
-0.0171669305549796
2.8962418117147
1.67579140589097
1.49947035715582
0.472207380710928
-0.540274885583484
-1.19813892090493
-0.411548471132871
0.668435221185318
-1.07754915763384
-0.000192597817069984
-2.55780699807386
0.198052720077077
-0.149234286406888
1.20932779460388
-1.40797114783411
-0.222012074406642
-0.768145465118445
-1.48855717802031
0.0538459895973355
1.69704946001675
1.13674356340435
-0.535750231485466
-0.598634447026797
0.533471841776518
0.896652265176607
0.937783494490747
1.56421542989935
0.77584788031314
-0.788097555899927
0.630392386351536
-1.02807202433554
-0.65546114506966
-0.619556260758809
-0.206719944970456
0.489980385464718
-0.271804259380557
1.62773758219618
2.2066322929816
1.40259544991348
-1.3760819331815
-0.979315862510207
-1.00390148032873
-1.90741154729678
-0.560296295521456
-0.0187637439372102
-0.629023067365356
-0.270984944614722
0.997908168638462
1.14844131285868
0.477117596800805
0.601064034865471
-0.783159623971011
0.00985580034487959
0.205599088804665
0.130851837692113
-0.107243319096449
-0.276680755693409
0.662837953665955
1.59208779007163
0.59195265869276
1.74642661116077
-1.38461620532758
-1.86800836301674
-0.476453395059171
0.694963094309792
0.657432372922285
-1.29160943419699
-2.09840437823778
0.612618530957793
-0.633081684167161
0.054767886826817
-0.307647486939533
-0.168032757063983
-1.33416940279484
1.676493892669
0.326537428638122
0.279210278245123
0.844034414481665
-0.0147659757223132
0.265244264192215
-0.986349561286925
0.723243838940204
1.8980956991981
-1.00901821831511
-1.44439593844603
-1.34300757725223
0.472861763254932
-0.718112884778364
-0.779192818186001
-1.29560896720231
0.0999970045321088
-0.191427536296279
0.776429729198231
-1.17838280368033
0.671225686625055
1.48482920204329
-1.16562974448245
-1.00446642296239
0.45504167484044
0.750054865401819
0.73469465152547
0.771176028279618
0.522115897113495
-0.411807320577785
-0.564906497519213
-0.924588381633589
1.32240134451296
0.910545146028427
-2.72625280103039
1.07437550703071
-1.17614554559102
0.00508509192401545
-0.564279181073554
1.20866013795335
-0.679498317648888
1.20732471344366
0.143277127459273
-1.29620514983284
0.529458747439014
-0.46433410147165
-0.409802645204146
0.58476407675655
0.830571577922644
-0.184235169733521
-0.000778189647535593
0.590592670107185
-0.686581836877314
-0.699356474838741
0.363305738369613
-0.455584636975995
0.930102723697323
-0.0684960954535196
-0.302510126653556
0.180019832388714
0.140114093817444
1.17787655244453
0.700010724266323
0.857628474659572
0.677256351216407
-2.59830877402075
0.175182178682052
-0.620995457000146
-0.261138432333678
-0.124003917992036
-0.872219832395369
0.0965292142184736
0.684538008944733
1.04688176939397
0.176523220636847
-0.334555766855382
-0.050391420728536
0.298531295893352
0.677281546128395
0.9243165559416
0.406427520955889
-1.04652834637187
0.72977486901755
0.794803725973902
0.632508197907889
0.946982022940122
-1.53565897174406
-0.722704500501816
1.50378455579263
-1.72062478431905
1.11409488347943
1.13676766818819
0.471078407987158
-0.455373211513751
-1.70378566752818
2.19099030589081
1.05188341440795
3.15442272677312
-0.365022720924664
0.559171295146292
0.101890969770052
-0.577036794804172
0.778269370683895
1.08630821059304
2.0471363481543
0.00425556983701553
1.07109135784656
1.42985894006755
0.79450100161436
-1.43988974956319
-0.701271221900729
-1.33572610934154
1.07036660207061
-0.112289841917243
-1.0404275211582
-0.899223207098456
-1.04104871440147
-1.72230935148067
-1.55228984873658
-0.470840117670963
0.210769317079934
0.705898540172623
-0.0349426376170888
0.0702707893364679
-1.41847126408253
0.929507033862033
1.50585362941158
2.16910202976742
-2.56796404151481
0.197147364575728
0.726890837242414
1.01121939503614
-0.347622480271322
0.102188737661038
-0.114062372336548
1.04800229488012
-0.968608508717222
-1.59377159879963
1.03055924096499
0.707041645763817
0.630748837993628
0.257866386016589
1.04246732570053
0.341830245945493
-0.17017917234896
0.658599703339355
-0.777937344103686
-0.252247202333721
0.594871802750261
0.0884818495035392
0.803869756177668
0.396534115439161
-0.469433505609587
0.0240326070467085
0.917710803534726
0.492428486880639
0.0357631864909374
0.422089837471768
-1.65775744398993
2.18634482803714
0.120958703454751
-0.717213536655338
0.657503837314248
0.0328965968840249
0.620289799556615
-0.360214227171172
-0.574030190958312
-0.462751481209056
0.877481073720503
0.611679861723201
0.800110436189193
-0.369916345976429
-0.907907029450371
0.044488855787513
0.228732008823287
1.28335240312606
-1.18388473579591
1.6791581531486
0.243290131417965
0.595222622096294
0.677380482758905
-0.875616785759031
0.373925609639054
-1.1078011886257
-0.167504656241376
1.19826497460039
-1.96773533736403
-1.53047850536198
-1.8084561081326
-0.676878010772751
0.696708581938231
-0.0536288007111151
-1.5913481389671
1.31585185001594
-0.935788057262779
0.61485513153654
0.74767897884229
0.152870745056082
-0.441390752997412
0.479230363395648
-0.796338890516364
0.0156702734800948
-0.129274591866453
-0.216924166216187
2.61802146023699
-0.250523727296248
-0.775482637374518
-0.415904039486873
0.133002480550476
0.15163160876029
-0.689454251196992
0.777867845047032
-1.82202563894239
0.69935759146213
-0.605213692992327
-0.588999877237506
2.12267337186953
1.54801685659551
-1.09973922663687
0.208631391410215
-0.838762899740729
0.365344078911257
0.476405259718526
0.834811726472175
-2.64565952575329
1.32364523044901
0.496328011005761
-0.0887476957186251
-1.4118171268858
0.524383188920944
0.262229487972081
-1.41854523125056
-0.622133718575945
-0.524902871788922
-1.73378843121844
-1.77880973192846
0.500435633450993
-1.00662926201305
2.20758864078293
-0.473731298331282
-0.97959492314085
-0.875504135813944
0.933972515877973
-0.34305214889302
-0.258598748887625
0.0419353568267498
1.63960191852837
-0.0836987980121525
0.603691852417081
-0.433430113543539
-1.27448997235266
2.27471566525744
2.35550295174307
-0.271516908616619
1.65110745819144
-0.666619151841573
0.720831180775847
0.158087608627694
1.79272514546261
0.74923516114006
1.02555964246882
2.8979017151844
3.43895312838829
-1.0153374924153
-0.813129443372244
1.15895033441884
-1.05131325713652
0.630741238800384
1.10113611580205
0.0237376417749186
-1.26285953015102
1.45666945104866
-0.0412125864423535
2.0876090846474
-1.81649630977782
-1.46824198074145
0.0428285765476476
-0.682561776177436
-0.563863821778295
-0.776399550023971
-0.681986589664597
0.308201311028183
0.334129407913951
-0.463945419717405
0.323113237182767
-0.146643094344426
1.48402248698568
-0.665881649605983
1.26035036839409
-0.519582662678473
0.781914028639948
-1.5563735376846
0.754240026820438
1.04037440113199
0.313449345761497
2.19884085434913
-0.473133579474439
-0.272600687353914
0.488777078468863
-1.02259643307661
-0.542554206738725
-0.625344530439812
0.0854807462479928
0.153914973760016
0.63035563121827
0.683076857948524
2.58325867497711
-0.310718153522839
0.0896166403314935
-1.26748640566045
1.48659485524578
-1.35519332313047
0.902517972687342
0.491869936577181
1.18710519992634
0.372882180263838
0.975455137247592
0.634988851996096
1.24945514915477
-0.379485237401401
-0.339523902162166
0.942158274881689
-1.01542794199768
-0.668571684178076
1.1478697932588
0.630939978165367
0.41456833735194
-0.719886303286066
1.75466238298324
0.215360557387109
0.267533009777256
-1.4303134264827
-0.364374373025858
1.06226464771162
-1.37877552485633
1.05286171685503
-0.340260323937542
-2.13690118990536
-1.6113577154831
1.10314886979691
-0.0247532080731657
-1.85681412053128
-0.752751083050093
-1.42997966732564
-0.145372764602273
0.0175670591520828
-0.793921671534144
-0.880030023813853
-1.19297922701697
1.21784476691811
-0.339537975763746
-0.413809731355872
1.50390782500346
1.03045402851103
-1.22775544367555
-0.598754751032399
1.63539772222267
0.465534658938614
-1.34381090658411
0.229792369347373
1.18721447914889
0.822706096402332
-1.28858550089835
1.3948515415739
0.375586753759207
-0.48331648901369
-0.0138926189186148
-1.05964779488759
0.830031452369459
1.38078797269967
0.956408057965334
-0.147522024479187
-0.337866067957925
0.268102638356661
0.343404854539154
-0.877091976358574
0.899159417980732
1.09855519478878
1.44181826789539
0.124486475378078
1.3242986595311
0.80976245805034
0.0284671312753427
-0.372203946458297
0.737007266479278
-0.531910867447286
-1.33933499930944
0.620449952868024
0.762757286066653
-0.892837768251596
0.998713321676569
-0.786051721937137
-1.70812814118098
0.773164216345437
-0.275636008392267
-0.458589742169031
1.4095258505072
1.88975603913537
1.10998445290418
0.235567286586015
-1.24898068900225
-0.440633371795493
-0.0645679042827446
0.28808680105854
-0.624216846896124
1.90175786274606
-1.52003289407792
1.41742173516267
-1.30193948018121
-1.15777170132131
2.01464658436374
-1.21427713625945
0.857111378214882
-0.0934559503065121
1.22642272752458
1.17892309588498
-0.295168324192675
0.879266983181378
1.82432707398703
0.114489433348115
1.91022746962943
0.91696441900527
0.412465219602105
-0.436221044230826
-0.173651686179246
1.234591346325
2.8393851505469
0.0429940293756804
-0.508008212877267
-1.0377263009677
1.30601565890267
-0.839073966417105
1.07586246362185
1.0647747709805
1.59082183723688
-0.978663330694649
0.269259986544019
0.348438345140579
0.252425364000365
1.83625406760169
1.09017072938434
-1.5223828907456
-0.734012584935132
2.00264776387445
0.0313937394340306
0.387243661252265
0.687416075247339
-0.0910188751007257
1.71605569277899
-0.364864180086191
-0.777626183577248
0.545275734069376
2.27541057140649
0.952543850833872
1.20307648812451
1.07587610164254
1.1726673218674
0.0427738903635203
0.00480931321921359
-0.452850932423154
-0.467776396835056
1.092400014966
0.749019523127086
-0.268579219504347
-0.814433793649378
0.790218784721724
0.00353987980775801
0.705873277992512
0.188050551062597
1.59392405774158
2.42430736200652
-1.81394650738033
-0.700546903220695
0.528222988919565
0.869238680001276
-0.576561947460201
0.671243036124449
1.30655749279869
-0.00966698511136166
2.07300942458375
1.68288545723317
0.818536462290553
1.99072130809382
0.8203240212792
-0.505972350368201
-0.96828602323861
0.0900696008916963
1.470781093742
0.115209233729676
1.75819201047599
1.26105001601454
0.123648921384955
-0.604632563011834
-0.705946156048134
-2.19108640895491
1.01591684469034
-0.360563389709594
1.05219795568544
0.695867850205677
0.562056114829935
-0.397469113405464
0.354648853487006
2.37111386423886
0.24220162192873
2.41055021777346
-0.564581507053028
0.990296445134817
1.0139670001091
1.47378193456314
0.0937251139125097
0.0832311997133387
1.11365470874644
-0.438618651964037
0.815642006040649
-0.449438171129761
-0.126207918673319
0.647322779441877
-0.0743284779706175
1.63589086487265
-0.325523616582695
-0.445053533324091
1.38867816384939
0.805349947243658
0.253644212887782
-0.913301350981576
-0.281675833163297
0.437442636157213
-0.329613835261326
-0.514269590681729
1.19091220808884
-1.16742835649579
0.948889315433669
0.464343733882483
-0.206619125567954
0.711364688817701
0.0838367247078965
-0.344118717849079
0.45565360377665
1.48505059918927
-1.15335733253632
-0.0367581619023261
-0.185649513916664
-1.09518169417143
1.09617738424319
0.807687103251337
0.230882509706681
0.21629383471589
-1.22094980699173
0.912124373597128
1.63710469185408
0.695206622816131
-0.0185953264600109
-0.866907034246378
0.150974111265622
-0.514124102517509
-0.73087614576184
-2.30017113255079
0.661390319825505
1.2360653959873
0.779119935478634
1.48489644965912
0.382102752361666
1.90183858369353
-0.191019509319755
1.82649266162623
-0.307364239217137
1.99662814522351
-0.32540263568101
0.770613949489563
-0.934990424913446
1.02139199681656
-1.32326167207657
-0.945596999365446
1.00432374920993
-0.525202649810952
-0.206397967392823
1.13770812365526
0.305458767583547
0.784785125385524
-0.925212948864985
-1.48129053451371
0.320338156357857
-0.257365692958591
-0.0137333965030117
-1.54915744401754
0.795939679655365
-0.92352341350557
1.55756547935032
-0.0296540774402765
-0.965346825929339
-1.06166044880259
-0.163136648760915
1.28686470899817
0.586620211927688
-0.0243348991351708
-1.63732842724249
0.247074026018569
-0.588087860094647
0.356090388794143
-1.61699713942906
-0.373370378674901
1.84856483388169
-0.080263271542352
0.870340507868214
2.1474307644871
1.35684799772939
-0.411733594782533
1.47003245971816
-1.40364847022729
0.346750024022479
-0.361362302453619
-0.310227836762288
0.556210936334975
0.399343106382815
-1.23717056601427
0.770009483089814
-1.30535514140197
1.88044845561817
-0.0700510037580182
-0.0677389262171758
0.561143401680721
-0.175807336340649
1.0657834477084
-0.183394978654644
1.48838458969824
0.416871481636896
-0.788396202566671
1.72510749454967
-0.974142373430541
-0.294251847109535
0.690414040510243
0.193808056083361
0.379541040347789
1.08483992860673
0.0104755543951242
0.615215298957836
-0.376640738846631
1.35184921334273
0.881709351606985
-0.220596395038457
0.293799482545435
-0.880897061764743
2.80862570937144
0.796897896441369
0.406031148479194
-0.963273280170089
0.265577467367265
1.27803054420944
0.959682669300852
0.838638608017484
-0.0429934247606599
-1.74460739379603
-0.476962232694007
0.129498340638339
2.41725868817574
2.28228230449127
0.355769492156286
-1.7305133384334
0.363990670913217
1.03574310168935
-0.0803578371698179
1.96689256761134
0.133399046711737
-0.283318584847789
-0.00803815474169571
-0.911070229141863
0.844742345116986
0.49761639843331
-1.64752189241945
0.369765950497952
0.86484800208396
0.00747158085776119
-0.743280266715368
-0.626355701995704
0.249493575859148
-0.253800956882673
1.29918596533491
1.02496558418683
1.94108172855307
-0.370043390070742
-0.0172251806427979
-1.78225752582466
-0.164017497391164
0.68884746565698
0.445833733223236
0.618378114176487
-2.29391639483099
-0.956938069553267
-0.100663937754616
-0.0446372113142558
-1.48907395541442
0.271673947586165
-0.718014234036095
-2.16491595208074
0.227209981195993
-0.884458937017532
-0.636353361016936
-0.235852896740385
-0.911127026202223
-0.546652383998517
-0.550462662641845
0.00867454901157217
-0.0443607397080466
0.0441426427868665
2.42082554613547
0.681288835512989
1.36943473419037
-0.436115856191193
0.595675955890369
0.0206484919562172
-1.00966485929633
2.30549456612734
-1.23230364478306
-0.214201546585729
-0.242913130598427
0.408248881904844
-0.208434661278831
-1.75474790466841
0.950582181271433
-1.53557904627821
1.02552068344728
0.6821003226285
0.0640502424835425
0.195183860367373
0.737821174554601
0.399149210640622
1.53943992690461
0.566606046935077
0.343870580545031
-0.492451000715581
0.421850374602927
-0.824852354942666
1.02501624563298
0.108920801584061
0.73072457013155
-0.414434482551012
-0.505713145359739
-1.23178348192559
0.0975706917471659
-0.966700155326203
-0.789208884451876
1.44464950735433
1.104388014338
0.876098568020707
1.15110444565705
1.17128450106245
-0.590461185769984
0.759494702003557
0.641032517495569
0.123009338411652
0.78557410201352
1.49335881914038
0.203030096895714
0.769657066819141
-0.108811068925581
-0.862150972592788
0.486178279973578
0.535559774050178
-0.744375229808134
-0.936888237664984
2.01035726768213
0.443575461510426
0.189647363292513
-0.614756020041518
-0.238711029328372
1.27248060657546
-0.30773283053465
1.73696092506758
0.995278730656554
-0.118496106773363
0.946456698289294
0.777063786931274
1.09466057663522
1.15245510439493
0.617273875310285
0.38590391919008
-1.32623459263829
-0.307224526933125
0.567195131687187
0.379406674309009
-0.722932722955327
-0.739659397681966
0.0614361976849568
1.99797784929933
0.31950484629115
0.961060330523296
2.04323798692256
0.919732161089805
1.0987950585018
-1.01656062119444
1.34559531315563
0.340982751724538
0.840483678145136
0.761167275243085
-0.629903148253283
0.251465750151097
0.44268663206897
1.31368326082095
0.364358694149158
2.03911800158076
0.606937352395637
0.0368186932910104
-0.406275362678837
0.293708596859035
-0.452906150491986
-0.104495960622264
-0.186419196391316
-0.017031983833586
0.849598589173091
0.79193344704267
-1.69387412154735
0.727158631780978
1.59638023667664
-0.222536787995353
-0.586627788242973
-0.683516743490561
0.150896247297089
0.186545704938447
0.955550466171005
-1.62193013886328
1.3820438099477
-1.55518701534886
0.611427756663775
-0.128145129062531
-0.122098543266921
-0.146467324949341
0.938038473558672
-0.91310686611968
0.632027713821185
1.58014029074522
-0.11102365264066
-1.19721497823759
1.45048066404967
-1.94235032337833
-1.97540442339489
0.278534755635107
0.305492873770409
0.353402250264093
1.28689762683225
1.65257824082238
-0.953058235054518
-0.194056788818605
0.931616917060219
-1.4812742912224
-0.59149429535812
1.00088588721923
-0.397321271994533
0.183991608768636
-0.320080630095788
0.385561123418698
2.1669300908244
1.30647384622805
-0.71334952450748
-0.220961059026172
-0.162127463790648
-1.26859364564199
-0.0517567627943044
1.68243733258172
0.318616875737909
0.0653718547651788
1.01494533600382
1.44062424520079
-0.883994320662689
-1.06752688711464
-0.053747168733609
0.640154539557193
-1.50723981381752
-0.512403097399959
-0.842555813684412
-1.09225903609891
-0.383090735916752
1.15675457143451
-0.0332118301525611
0.217427521462686
0.553816435899118
0.287879289677131
-0.281415073436274
-0.837023836845855
1.70625682893713
-0.616199717451595
-1.83994329795576
-0.870227488269188
0.267110521742409
-1.40729696912819
0.200293910724131
-0.505258676987478
-0.834129027279593
-1.18103727862448
1.05234652209793
0.115935505037903
0.229109096974491
0.106841999279918
0.308982565513915
0.866585708245667
1.61130055674365
-0.628229033755201
0.522213687396465
-0.666066405432534
1.53658127908266
-2.34339378714506
-0.835429140861123
0.293487118838126
1.48617827862773
0.120124719146496
0.856853723866279
0.405873254293362
0.188369541446597
-0.660584259511832
1.07359846732792
-1.40785837221469
-1.02637644367718
0.316404591421499
2.27313361390105
-1.42747722823454
-0.682380003975252
-2.73782218614041
0.240331678474598
-1.02056834867686
-1.41936397442013
1.27226097418302
0.433441047461678
0.417836613670392
-0.296576504304988
-2.21433763818964
0.58443753933573
1.11276994489422
0.0387922645486701
0.775165790435125
-1.14591267006642
1.28080995467978
-1.95234904651105
-0.815128945919259
-1.01557515058834
-0.93826106070853
-1.70046525085178
-0.147489830489015
-0.21218389552088
1.71602415909264
-0.542955644362863
-0.125631693933378
-1.46056382192918
0.307099214392537
-0.60810407368974
-0.691277611181019
0.279283735925976
-0.457953843204838
0.802406428405838
-0.340174502947157
-0.801545628225636
-1.88352828608756
-0.805061261026209
1.86037007611151
0.717195002911556
0.352647389320466
0.435254820633517
-0.32034015539429
0.0542758102431901
0.57857492482655
-1.67886370442934
-0.206451541144793
-0.160293081003029
-0.0366450474926712
0.962023449322097
0.0677091467391068
1.08372207534361
0.717396256769244
-0.447506228175788
-1.17597751249966
2.76703510835379
0.35617709919314
-0.27305346588697
-0.0364318175788522
1.18162149701636
-1.36795249452328
0.035259257643869
0.5387421799134
-0.530478915087423
0.213672896392499
-1.36813630800655
1.53267099648937
1.28011719707716
-1.33124900713742
0.462338941237862
-0.0241710039801923
-1.91572928860681
-0.496155619274096
0.884188269531692
0.787841356924807
-0.733845210256987
1.17894655174014
1.42145330351138
-1.37135770302915
0.309038378910243
-0.809744693243219
0.152871690499489
0.202341757122048
1.06425539595499
0.376080774600995
-1.13161331823659
-1.00638254747092
-0.0146718683897537
-0.268588758418673
1.15924876430487
-0.721913680179318
-1.12514378620577
-1.8997944458776
0.039237036525816
-0.0061078341488775
0.93570382080294
2.28354986187427
-0.957935079563857
2.20688007238364
-0.590902084466264
-1.09203905637829
0.109411439826284
-0.49037283032513
-0.606011632559278
-0.133715654566699
1.2142358420878
-1.22719403615839
0.245872115753961
-0.0219477119619378
-0.568970650199963
1.3405094567556
-0.468875218863979
0.4439649655992
1.1241806893327
1.27802989845001
0.312654726862338
1.19500084592069
-0.277188972110843
1.25473568771981
-0.025437110042083
0.746338701952395
1.24550784868172
0.193507529113407
-0.58582871153573
0.0456936761112342
-1.23047766136855
-1.26944560225004
-0.347776856961117
1.74153094265488
-0.234259401631519
-0.684949867242345
0.276419324174703
-1.08750090059602
-1.6065153889649
0.95409511338968
0.0996218583884516
-1.65092934574253
0.0464936501207837
0.602905843882789
-1.2385102597321
0.00492948464463828
-1.35637245302686
-0.462742647204612
1.35525824536145
-1.1656958918896
-1.37930681461188
0.53378053946231
-0.571616661107456
-1.09372144318413
-0.049755732408998
-1.19183673020325
0.638892649761021
0.054410905728957
-0.315208816729919
1.62370065859161
0.567686918344961
0.469615380404559
0.0853348689432481
0.44373783399101
-0.805939319940307
-1.60822291929041
1.8363190578489
-1.30547168910894
-0.267788736756328
-0.159569396027139
-0.348147585441457
0.0808369157776991
-0.0856953248798289
0.366211686515725
1.33197158991799
-0.0983087548363141
-1.00303570903384
1.81444118262142
0.124659360032205
-0.229084655335502
-0.622752755326015
1.52008392730487
-1.80407614466348
0.188223084469985
0.654570367397375
1.14725783014163
0.635641882341025
0.849787614714461
-0.0193815503641428
-1.33621581713492
-0.440488544569477
-0.234796033285578
-0.630383286338596
0.39277844578404
1.77347762873413
0.652208627918505
-1.47056376935954
-0.0399751047145948
1.76056688511549
0.198411717640403
-0.885765615713869
-0.671770775373672
0.3287574272816
0.862589760309541
0.252996974277463
1.61184294320424
-0.370159811459976
-0.225717593706147
1.23457515886656
-0.870737556779019
0.247981222796106
1.11391333403359
0.252909800613614
1.80571186718225
-1.06915890541526
0.0889347492210814
0.166616558647431
-0.992852408542158
-0.356539054124145
0.913688995244866
-0.919489674250863
1.1758853167587
-0.859147429959
0.985407686800546
-0.0604245655145186
-1.00302667424532
-0.0236685571802547
-1.5023713318961
0.468763737122592
0.0414075582153453
-0.150293945770216
-0.754497178423759
-0.817430916570618
-0.505398345831191
0.651331098776914
-2.7205484976244
-0.508003238907946
0.939544111713722
0.0851747551651391
0.846172248006297
-1.03394481936513
1.31245296033281
0.351485089134185
1.37247077682876
-0.417290314636382
-1.01407859934815
-1.51454787560726
0.310374088421472
-1.87878458593112
-1.33449728098731
0.39753634286671
0.194036708285574
0.657168620458849
-0.212226087072191
-0.566308557649828
-0.746334541439034
-0.297203192856191
0.0781489563120998
0.812209033790308
0.624002405019577
1.90980372851581
2.42873365698674
0.038180590373216
-0.356029291115903
1.46980898272355
1.48381000976181
0.499662251199585
-0.457995206440797
-1.98113838118206
0.271950081912903
-1.50614464918821
-0.631730426929305
-0.398997378813982
-1.49625998351124
-0.159659840815225
-0.15386382487691
-1.51877760353695
-0.563971493805491
0.0603851087073129
-0.0933875992518951
-0.369559954061147
-1.53913067474071
-1.06971584985735
-1.07405559285773
-1.43049381275279
0.319620269271923
-1.30300452145093
0.371879958536413
0.587621743796783
-0.0513947663231355
1.05927422623539
1.29736197537424
-1.73931336796969
-0.0528907920055554
-1.1241190531994
0.248477307819566
0.673563431861819
1.42069428722867
1.00499582196914
0.556715028855627
0.699602062693323
0.216312958147436
0.384019117920736
0.0678824249343957
-1.1870822379804
-0.640406604521538
-2.19314580415473
-1.09270071695227
-1.22135870199468
-0.31473371045712
-0.07364555163176
-0.633840690363016
0.73106078718366
0.519554653534902
1.05742228206385
0.827813879686696
-0.195625268179469
-1.52740723556417
-0.780806125535651
0.62697441915152
0.233988810290036
1.87124047824685
-0.430124733505935
-0.632468024207078
0.712681825577968
-1.87444737915967
-1.05097185379303
-0.0446011564170456
-0.418237597984438
1.19945056520736
-2.24852395976248
-1.9523997752976
-0.797506423798788
-1.37922812375724
-1.10300030947203
-0.344018230163192
-0.668955671501475
-1.87893994986848
-1.10245873397028
-1.35395807413698
-0.354395629486848
0.511260323488228
-0.164754958331296
-0.876723776997939
-1.29124534671437
-0.810004201538044
1.53907807770328
1.69911928240406
1.31130945249401
1.0496227807413
-0.530549521827972
0.627415419921985
-2.21663071131931
0.310775229657498
-0.903711070683296
2.46426185992883
-0.429188215578499
-0.579106788673594
0.423360402222946
1.10017600974382
0.575973632862578
-1.40369667079485
-0.385987365902058
0.327749074650505
1.12739770963284
-0.0644470454945615
-0.0670021868892677
0.961883887011693
-0.506267480904806
1.40782720003229
-0.245716230536631
0.312596867782539
0.0346416893038162
0.630439739749221
0.993829356334275
0.822505079741853
0.184650702907184
0.896832881472943
-0.738041578679679
1.51761038457699
1.79183251011126
-0.173978579734092
1.03959400488555
-0.244570092611988
0.486062817658773
1.12843879751848
0.545235654768431
-0.88289923344094
-0.47025342873818
-0.607465380278154
0.517027198894901
0.0956110159838438
-1.04240368306778
-1.32691880967886
0.316823768292499
1.25723934136364
-0.161631231533066
0.0195485765016125
0.877132433759721
0.605283946814674
0.208915180459914
0.0219256139577927
0.667854621542174
-0.883702715446375
-2.00684117537428
0.062177264611227
-0.556693905644819
0.0750853903753788
-1.19441409865198
1.27329113447667
0.760095915139702
-0.511333732029627
-0.510119352486013
0.855271095578263
0.169585231730609
-0.913635613464959
-0.329629531615657
-1.3035488955231
0.722356871629304
0.978400100908552
-0.18165481214021
-0.1910756429177
-1.14640996682429
0.00718932206010988
-0.137965464789517
0.332145017349259
-0.900963656266144
0.399184793694429
-0.0673442641045449
-1.15108999979312
1.18940381386828
-1.27243618932211
-0.039322857235494
0.892133290848191
0.404724375107655
1.95576675338337
0.583555971834737
-0.851156373235224
-0.014440912562794
-0.0285737612453804
0.499213080406023
1.95653693354682
1.00154974590155
1.09371113866948
-0.655771630548954
-0.0182293124090487
-0.878078880415669
-1.21039279948045
-1.23080784500064
-1.34834250251226
-0.707537157737962
-1.99569477642254
-0.474030614908364
-0.367426397015078
2.48804199982738
-1.05883540693863
0.918568683134504
1.08069196653911
-0.137887000683966
0.954745028437418
0.743559387917695
0.517725135618922
0.823370329086811
0.859007384116988
0.843383223126695
-1.08750018178335
0.0505726670625132
-0.273310040880647
-0.645039751810588
2.60506219567696
-1.01099103122096
0.581576817735319
0.246989427730921
-1.06172710968935
1.21982129584198
-1.13139815345004
2.00580208101881
0.286394441233327
0.899621367461459
-0.694729795972504
0.0475776306978617
0.790105759227686
0.206821599966799
-0.0432482343445003
-0.109747851115551
1.95648226417582
0.00894475839838385
0.316411713967163
0.960658929526617
0.748132870291705
2.18654220284121
0.0908627549712946
0.153196275653191
-0.124887075465582
-0.388446509763842
-0.0919642884930235
-1.44734440649805
-0.617979859432205
-0.047868041393954
1.11973486645909
-0.394597697253328
-0.830559746254753
1.05183281890107
1.65881025351071
-1.7036622505682
-0.858360989797603
-0.0886740721000422
2.80426293362261
0.234540786280649
-0.654650717168522
-1.04114959328528
-0.448371354627527
1.59652530939615
-0.164128938520568
0.109947220096244
0.1298198260643
-1.26896771546355
-0.599043892865326
-2.55706401644926
0.4961785833754
-2.73363207860861
-2.81297223388249
0.18820581820879
-0.740260376398232
-0.777776130099917
-1.32059642356373
-0.824848298803603
-0.500449128893783
-0.555703668941556
-2.43755652521843
-0.982250136180362
-0.598532983605446
1.50247111168129
1.16963624094306
0.862018523283072
-0.243957236682113
-1.97646585489871
0.693073042094137
1.47161971646282
1.47657590062134
0.257925802634263
0.468140667460664
0.967743893045463
1.00008859486394
2.4350935753326
2.97295864470677
1.79465423189223
0.578997652152605
1.99935063712283
-0.12694665045262
-0.314848788675567
1.91961232776258
0.425437159696128
-0.0809482295401548
0.289663272420417
-0.513984338897125
2.67141714098619
0.374953002522574
0.396911125877619
-0.106427598863934
0.361950369547177
0.0908388225778653
-0.692159817220614
0.698435874048214
-0.298136817555371
0.399974574366686
0.016620840169857
-0.104440842884235
0.0544669234942733
0.0857193441711994
-0.559882645892393
1.70486169657475
-1.31147408037932
0.888282729189533
0.383478900748559
1.86109075077434
-0.637669378092045
2.0132855690395
1.51371440647375
0.34583168837203
-1.01958873638281
-0.704194589166993
-0.686425567332342
1.13488425412499
-1.22742003073539
2.7877482783541
0.435144239009092
-1.9160059023767
-2.92311060455701
-1.78979892774286
-1.07094183424101
0.588311659650892
0.815184034105677
-2.53692273345546
-1.90828613977775
0.090657205114417
-1.08140517636016
-0.819465821778012
0.973885474299575
-0.0455466005541916
-0.510967592849856
-1.38125825320625
-1.50122249061434
-0.488793053662232
0.740940506789867
-0.229954830510645
1.63744913046649
-1.36686807153442
1.04432481561638
-1.18869681585816
0.823148084473454
-0.129715590732356
1.26332412014674
1.24886474660599
-0.315396837480992
-0.946851533183527
1.33869927863261
0.413918023374428
-0.597264264942044
-0.045042131371051
1.22015569791308
2.37814942145284
1.20035197849487
2.221567318132
-0.403341392545553
0.939842765447862
2.80992739316807
-0.913043757960519
-1.65740130277675
0.376773140782987
0.0745837239074612
0.0964422779996185
2.16088176281066
0.449169875104495
1.03499177804006
0.271319935363819
-0.0988264049302708
0.354235436836802
1.50151209597727
-0.92463818709119
-0.568964059338633
0.917329412350945
1.66784860525265
-0.446782417639579
0.908777884984743
-0.557761661245445
0.160349137625225
1.09846724807539
1.05937557718385
0.583901266125325
0.279533014572452
0.409076044015391
-0.106921320234106
2.13456316031202
0.509213647270878
-0.0750254241956258
-0.313427311909208
-1.569273762568
-0.348014904087482
-1.20770272706598
-0.551369099507992
0.826418650183007
-0.0966355980207876
-1.58154092527911
-0.390252457775482
-0.477513785146288
-0.535250144117907
0.962567304229215
0.353195592976389
0.376162050543224
-1.17827581619811
0.502858805530682
0.853826716023705
-1.49813296716577
0.647478117064158
2.15047126441138
0.141498172269254
2.01428537717541
0.826039450151817
-0.583577526798436
-0.0649828878217475
-0.455953091354794
0.246945047831499
-0.822796180796067
1.39614446804315
0.949009317802672
-0.587309143561536
-0.52840341637461
0.96423025456637
0.74453134065116
0.575513016921019
1.36229479862792
-0.50928791413211
1.32438317588494
1.02496927537048
-1.5178484637645
-1.06854192841848
-1.81313239740657
1.61654346580484
-0.126638263135292
1.27638568763248
1.66445565975811
2.79783125098367
-0.88846758418347
-1.49946468626415
1.89169701119401
-1.00141350793493
0.716778693289317
0.686345363251978
-0.623373669788751
0.0347577327694047
-0.542206177899031
0.396702904785202
1.49796947900924
2.3797804873796
1.47713389141268
-0.249108500220556
-0.789075362428744
-1.02434271212826
1.44492616874748
0.375427068449777
-0.424173106022648
-0.702345963031116
-0.945457746284206
-1.19155259506386
-0.72512517835276
0.614352401462168
-0.655487789665636
1.96584440944921
0.911462066074078
-0.817426839874656
-2.72977763625587
-0.0991404028799245
-0.4142653105135
0.355924214386739
-1.22605940009121
-1.08661828127583
0.524375740111423
-1.40727720168356
-1.15903010736392
-1.1630498277036
-1.02112210217513
0.612351806418292
-0.545628652139738
-0.38605666249294
0.324750624227479
-1.0066721087232
0.371356619417666
-0.251745444464243
-0.0775192660117509
0.494296863025826
1.55304593299962
1.15097513955761
-1.73054504293768
1.53346487319268
0.520388045028546
0.270193456001812
1.12567476886432
0.443177276296685
-0.413395807321167
1.245557142744
0.38584991478441
-1.51376651537705
0.968814993986869
0.716017928650685
1.31929412000495
-1.93224182981879
-0.532060943405098
0.456333765081159
1.34071344404801
1.14276249907658
-0.675786624787698
0.815543281230236
1.21789461385721
0.196501975895554
-0.858559306617426
2.18485445113572
-0.931114536712762
-0.943069511415767
-0.271638485698873
0.614232470639388
0.65706144526681
0.15121902287234
-0.420996744823669
-1.34152904102382
1.26296658959623
0.926091746335805
3.20994597386406
0.0951552958128028
0.867272206175307
-2.2018117908049
-0.132497006807843
0.231067515909836
1.63872958489221
0.433432726344488
-0.401603930924064
-1.05583296399136
1.55680052456139
0.94234960087355
0.0377259928999522
-0.156566201056378
0.370752005263972
-1.06301578640702
-0.654393380796716
0.249133312610068
-0.177400515583594
1.09288425953295
0.790972672387106
0.324871437989949
0.698240311893714
-0.693235256474683
2.41364943235614
0.311923068475932
-0.266764764212506
-0.549630698754058
1.42302950425291
-0.212546287920477
-1.07824449997985
-0.0141110073794536
-0.711010067517222
-2.31953006052259
1.51615807459333
0.733965821141108
-0.732559764672942
-1.15002671324966
0.964185929620822
-0.184030913591954
-0.210100401876111
0.802099042466209
0.63730806246776
1.61018018210118
0.750658814248745
1.54970343921052
-0.796987944979319
0.567932793881417
-0.28926692979092
-0.289453767812624
1.08650451385713
0.786188987528202
1.5805468008469
-0.445381414396879
1.05810106330114
0.466817623362902
1.83728682215463
1.89040892828984
1.74997097691263
-0.18636060812346
1.81710520851787
1.83377701174169
1.39780565450392
0.22279956272047
1.02480541164619
-0.451299683410825
0.541450933001333
-0.480906519488537
0.891668027490228
-1.97463200532643
-0.464725070458791
-1.47287505945158
-0.819058103116107
-1.78014386877727
0.225728137582278
0.277930652507917
1.4726507040032
-0.0799568119341747
-0.40803882570108
0.91386482704508
0.68947213209627
1.44992864234731
-0.424247730105663
-0.745061424853975
-0.780903089182968
-1.64626051800293
0.133495018916653
0.114488909111706
0.645372135890802
-0.445508339281442
0.961274298549503
-1.45970044092282
1.06623705421672
-2.74986382903729
0.307956373353376
-1.00985726289007
0.800364640885101
-0.271851748850351
-1.63713126903985
-0.343111455390187
-0.253292755070999
-1.07061707958684
-0.894019928694365
-1.17205170027471
0.592849286999678
-0.0207454217281588
-0.502659255664917
1.19163678835403
-0.156851206412188
1.01012887512591
0.415194460021032
1.14791482224459
0.599012599387003
-0.206196521671146
1.1994441561307
0.916047044397734
0.134799021124754
1.23212319383999
2.01723631060118
1.15284720798631
1.72234596350936
2.81963238087386
1.92829105633642
1.95443814052383
1.67817663586865
0.731318000002504
1.27021230481122
-0.375014021693276
1.05843938297283
2.03380830361075
2.39596726966058
-2.46544199903172
-0.792767293272873
-1.15996117197694
-0.294547315107818
-1.91497128860833
1.26852362444631
-1.41671892633298
-0.54391642343883
0.659427600383755
1.75990893731623
1.39961080192812
-1.17359776276056
-0.733807734551381
0.211327430715132
-0.768592473850075
-0.179119799412353
0.867111215338213
-2.13609663434906
-2.02917939149228
-1.06232644738261
1.5608654421058
0.0727927186927135
-0.859499258357753
-0.391549164268171
-0.573923374637943
-0.747910639845569
-1.29318495137202
-0.813360331634635
0.447871218372047
-0.398195033380493
1.22979921916504
0.476845564237083
0.490134737608422
-0.634962504252351
-1.92725572471017
0.212863417889358
0.588031366103631
-0.00502791804591657
-0.447407695318682
1.53382629781123
0.544524138275515
0.132064169793067
-0.77620787058722
-0.919027784563765
-0.970067139230338
-1.29380239203029
-0.134828299589826
-0.450998088257207
0.203849128693132
-0.359263190522498
1.47938094402255
0.941520124836163
0.15773604914461
0.641911194302208
2.28221659053545
0.878839271590707
1.7318084187129
2.34332755842867
-0.416899870022534
2.40820130782651
-0.0837744227083004
2.91424518878439
0.773323001556384
1.20764873826594
-1.74817881685696
-1.8978251224742
-0.686570880728035
-0.968466776416093
-0.656944622612657
-1.2731992216802
-1.6171638907372
-1.25122670073714
0.618625121439986
-1.1664537287371
-0.148304958377597
-1.03789542198187
1.00324049988556
-2.34297692328632
0.104319912119787
-1.11939552180179
-1.71969529380638
0.44475122347295
0.345720093628299
1.35801989028998
1.56970558682014
0.374951416899029
-1.78197052038819
0.834162575550418
-0.324936931662683
-0.456703218887526
-0.284198918607432
0.0504965702580777
-0.9292239005861
0.876077564735305
-1.37957935798554
0.73508088683972
-0.792311986279007
-1.75154902385658
0.215881645005427
0.994210665690057
-0.539160454929606
1.28860695397809
-1.21384915637555
-0.159773658777547
0.606350134736849
0.620371974511807
-0.632465085517135
-1.36692282402023
0.40154566562278
-0.62453505678117
-0.306888916277793
0.185199864473214
1.11615206244019
-0.638550553796138
0.520182494276754
-0.696664224044896
1.89304948241715
0.155240887611484
-0.250202254409861
-0.0412600269816647
1.7407787447558
1.66671201050063
0.0991912717229957
0.0536565638734615
-1.85681907094284
1.05367347116991
1.63550260749722
0.50895483424029
-0.00398909058023072
-1.05944395796576
-2.03062018556941
-0.702001637471936
0.45449162256767
1.51141514589606
-0.439228067229297
-0.611105754021354
-0.834709880448317
-1.00574390975689
2.11159003596025
-0.737796539974127
-0.0586363327670049
-0.662409651182644
0.389458956574468
-0.578699799109301
1.38274565848493
0.539844151496565
0.263611546845103
0.232595385439196
-1.07931488094709
0.67280215551929
-0.417756892916133
0.344942294548233
-0.568902837792923
-1.18721525068614
-1.06190950538119
-0.164282860072005
-0.358065867423102
-2.14272440520115
0.434272064683005
0.420702571861816
1.8363063687377
-0.669368829118524
0.424180728042405
-0.809664556291448
-2.34882594001663
-0.947283616877152
-0.0695725033941665
-0.682521126808185
1.02471780798628
-0.0130611285846524
0.829356294380662
-0.567065372380332
-0.547802455074437
0.858146994677812
-0.0347287803523891
-1.15539091417848
0.838619319882224
-0.39287280113744
1.03023653120086
-0.174759101720868
-0.294462678870585
0.872392327668852
-0.693943830987027
-0.733600912874211
0.179891590298959
0.381038206768391
0.894777619997582
2.5922728169775
1.33447093582195
0.277243155939785
0.838403598424629
-2.08128416807517
-1.03815416939394
0.123407161272522
0.753145059922026
-0.252497478411203
0.957757655104648
0.529696531775308
0.135992065681378
0.0580580073726702
-0.709277695562574
-1.06246469799906
0.260861221133682
0.309927225099483
0.102099106549466
1.04673050422597
-1.01465738838596
1.28352989785621
1.22727668276563
0.587823997227856
1.35034415185107
0.561404439118258
-1.7736396255604
0.363432287369888
1.06891513883744
-2.20490529132468
0.2736573008799
-0.345574811003663
-0.737347555324767
0.952040465986852
-0.521619102755473
1.82161197092485
-0.961570976763792
-0.754252550190692
-1.09024656421021
-0.799010761560529
-1.29105140510836
0.930096210720677
-0.532290789496443
1.18920048842919
-0.244911970665813
-0.98303214320925
2.72260424785802
0.622391169177739
0.307998714731383
0.653627044258413
1.2851442954249
-0.560362199671767
0.68793044215348
0.442550806267405
-0.469929132838858
5.29371608892359e-05
-2.07062819876661
-1.3589433090586
0.529240293134839
-0.602084013715549
0.591185059251403
-1.15161919391256
0.432425671579197
-1.41749710021635
-0.541432865744893
-1.42485116169789
0.97576360289488
-0.499581986753963
-0.247052949089172
0.129280477934107
-1.38388284812841
1.17793128533895
0.847758484311201
-0.377770334541278
0.43989589624787
0.601575117672199
-0.0941342800141335
1.95783065168946
0.843442940802669
0.583416689662186
0.9613069799497
1.06458399139535
0.650519243444927
-1.35614239854661
1.67741288029446
-0.501637363638096
-0.449149660357991
0.316548263967343
0.692667903173275
-1.41882140151306
0.831572551564372
-0.294641073478082
0.358746802981804
-1.50255766151809
1.0753096065957
-0.0279354898283031
0.712624733551788
-0.295173277915634
-0.756902938110591
-1.73334807168164
-0.533483408496972
1.05639366043607
-0.033649385414067
0.921716014727099
0.0322062848046646
0.433503407786586
-1.40759998227232
1.02926579624105
-1.14159348844556
-0.568023977159976
0.953197285422208
-0.33292084634976
0.560214935998637
-2.72928099591674
-0.682264163850097
0.970056208810934
-0.553151096817402
1.91571777794796
1.5627518071539
-0.548184001016045
-0.458444763007218
0.891247308966609
-0.767027367841717
-1.12191517513499
1.16443318157584
-1.08355038316803
-0.639144990922922
-0.86881261371038
-0.330285296361568
-0.72079403067819
-0.0939404287023273
0.693585143018392
1.24058289792944
-0.899177414700237
0.245855029342191
-0.693678908918873
0.549567037489131
2.44787937347722
0.504517738909829
0.0050477936813654
0.0426118343548187
0.261645154303694
-0.599337855417719
0.355705087528169
0.580705222888226
1.86874906348778
0.313616739891931
-2.33250395821996
-1.13270239986235
1.39074978980308
-0.701947589228622
0.249630686866531
-2.04056556665773
-1.78696076680176
0.861488873112945
-0.0241018527945077
1.64968535606323
-0.0933676808431373
0.230460424568112
-1.63017856415271
0.493630577962232
0.871879925505818
0.539445410647663
0.573012447168277
1.17328374185753
0.294822276064773
0.367567928021317
0.635864865225611
-0.681281381089256
-1.22536752268738
0.19895140250519
-0.240117177229943
-0.523677425274028
-1.5814662438227
0.768848717015191
-0.173683894432861
2.46332237793639
1.84241293866802
1.3657935651842
0.765442866983649
2.06461035559323
1.66919953164958
-0.521055275737548
0.00383654716681076
-0.0511724567654088
0.572471196210178
0.447236846421987
0.451007464523638
3.09916150983279
1.64324238226365
0.633641514744241
-0.493228365440981
0.907745709146506
0.287667289389034
-0.0920248995063995
-0.129308493787297
-0.748880178506251
-1.91579704094521
-0.62123031736777
2.12016578007907
1.58455608518546
-0.265942261837458
-0.0832816618607405
0.279070463473493
1.63878337980774
0.0441790323637629
0.735819978616711
-0.722391549458912
0.0539021896829186
0.882562858086695
0.30674087259174
-0.337947173407598
0.607917298783891
-1.25733350796378
-0.536375043168455
-0.102510644718231
0.0785513687884808
1.05571130035219
0.736025083607956
-0.139385035678323
-0.684989266019059
0.49612260359384
-0.194904512754525
0.052077760715147
0.862676871493936
1.375969615536
0.11118831156901
-0.211123839726167
-0.231506651837103
0.887478000943293
-1.02633757631011
-1.43967661148201
-0.331393958664524
0.583427279196352
0.740632911732016
-0.365077438194782
0.155567299734159
-1.11310334586004
-0.294158188344542
0.46812434036208
0.377650937581673
-0.123364284754784
0.793414566011962
0.402292718690798
-0.374889071650635
0.266082160163829
-0.578817476439239
-1.08197285480281
-0.889110975040346
-2.77759792641863
0.117266866592274
-1.1425976178172
-0.180972426517429
-1.30320052027589
-0.220461868333716
0.370784130579869
0.423006374730452
2.04850131889632
0.739599604515213
1.49862584004563
0.654608537788339
0.150197656404181
-0.00820425393047758
1.15709714440155
-1.27568137970532
0.391657891920248
2.18696290137503
0.181809570657793
0.307369192917684
1.31500136275953
-0.225925717966979
-0.277018914289312
-1.0479908490798
-1.90176302220738
-1.53133925082832
0.529228786952794
0.794098900066681
-1.16763658544523
-0.00934294612878234
-0.692743290176034
-0.0584562340296106
1.06168954432651
1.69738371515919
0.387993694751381
-0.206804207223465
-0.702510934141268
1.65247663747046
0.296394888794106
1.29074906655106
1.29913079137108
0.98899022497072
-0.673622261360668
1.47560913126711
0.433026990804669
-0.978338443758652
-0.642331577191161
0.419105118000027
-0.531121275917523
-0.119046673836506
-0.890765703291184
0.44733973299127
0.790038839384532
-1.833760283676
0.620697703502755
0.107699371887031
0.0340136229198938
0.526346522396537
-0.248460517373069
1.66837039839313
0.885499454950318
0.812637470007284
1.48527412394167
-0.796394566924086
1.31696248239
-0.253306379961044
1.07787355126641
2.07547031724516
-0.0201608308273915
1.85936601926763
0.130058042192911
-0.817145619339252
0.42880847350148
0.418129483499246
-0.469491822056198
-0.682305146828738
0.952193145360485
-0.61528527723748
-0.443440574837959
0.298529905263609
-0.0633561818855362
-1.30303495771051
-0.66474121577896
-0.290429376461236
-1.08240563178878
1.95711278608945
-1.22093365205343
-2.32838422133864
1.06531483204567
1.39931500645046
-0.635634854183593
-0.15662087052911
-1.56467557915111
1.28172133313014
-1.08678182277254
-0.0875546871110255
1.85807806376933
-0.979370942463469
-0.754178182146493
-2.25052677977947
-2.11284595285635
1.12798984577831
0.664665945338401
0.933386517471867
1.00504117650434
-0.39474286285985
0.879194322661401
-0.558123456947922
-1.28865003885672
0.811254203415104
1.20786228938421
-2.30990286936396
1.34362393102614
-0.358269420246473
0.673562063197937
-0.204593913891531
-0.639347303028568
0.129696907797166
-1.35964830041961
1.73420020284073
1.37286961998329
0.292092069196085
0.961085910004655
-0.479916565151458
-0.769850098058658
1.28598058497713
-0.933493061187072
0.610177472074135
-0.428692855832492
-0.447676786384702
-1.38008447379572
2.36306033386613
0.0410753915031848
1.02151129984063
-1.31817419185165
1.39965429498884
-1.73772551938244
-0.756879763702688
0.880268439908156
-0.284056102511921
1.81925787469266
-0.74140512051297
-0.950318923067137
-0.447152191020374
2.46369654400449
0.767466237109545
-0.715448795702907
-0.96409560068559
0.580709526206748
0.060102227514834
-0.106950367112664
0.141677395476704
1.63819187328085
-0.47047672188388
0.460260583030918
-0.211178065876663
-0.146404601410643
-0.612673553521397
0.0299603530499657
-0.46003995719222
-1.11542230399
1.3918935437887
0.169168956287208
1.2139731694288
0.933639229576127
-1.84506272788668
0.202230401698089
-0.0690202644282189
1.02615607858864
-0.834885830481999
-1.42391429615007
0.938047741481081
0.976465998163473
0.185566007689749
-0.252848556724638
-0.105312746170107
-0.442090192227979
-0.594883122784715
-2.29022412454077
-0.299814827108116
1.70568431778631
2.1526402497687
-1.10391332607862
0.853406435465284
0.978871669617689
1.12815397881813
-0.296916883298342
-0.72017246503579
1.0067098037994
-0.329163300265725
-0.192154692905348
-0.713142359613328
-1.00441276174038
0.0215081357953504
0.560152015964601
1.10654097390584
1.0535951689019
-1.32021874012769
-0.0576169658814142
-1.57039898618378
-0.345130155300946
1.30552657141824
-0.653670992718196
1.75980973827573
1.92553149970723
0.117173514175139
-1.81932918087252
-0.325751896035515
0.206063145435108
-0.602680625506344
-0.477701637872035
-0.644024769627043
-0.924731994817101
0.418909994418649
-1.57182502205323
0.742018823887608
-1.26347411664271
-1.3529956825194
2.50544436652941
-1.02248946146532
1.5873118184964
-0.734840379338162
-0.239105502022957
-1.0307988094255
0.620501932359966
1.13374884431202
-0.580766434391916
-0.600817112778563
0.775882093482879
1.46040950532947
0.218625986166618
1.21812119526393
-0.188077558830327
0.683571465195088
-0.620273461799609
2.33746676216813
0.0574948474443807
-0.137677139428347
0.47068349758243
-0.201234109706267
-0.0847117661238552
0.798014300985008
-0.696007971437963
-1.3873730383324
-0.493532367229721
-0.872358618946228
-0.200876076487465
0.45694772704562
1.16326584761751
0.674512470665639
-0.0484900881638224
-0.666894553780104
-0.746546350100354
1.31313179360326
1.70817432656771
-0.117166288091347
-0.0984160466087287
0.935958898701462
0.415086959187052
-2.08806740284304
-0.471989555804734
-0.462026434284949
2.31572925091708
1.0444233157983
0.555708332498535
0.433958573049138
0.633566225077985
0.84461295389734
0.22984498105504
1.60024561601455
1.00134564787236
0.601956911637828
-0.830355018916547
0.159571766238914
-0.993476339928977
-0.563884126951038
-0.91384803783685
-0.544118215250935
-1.7195017073267
2.38950190587038
0.0943045368748688
-1.50881899653033
0.923115931171948
0.878638530380541
-1.78821884908191
1.48288668616113
0.756426295072475
-1.40190789827036
-0.329851635324481
-1.14766131398867
-0.175174165507804
-0.740798382720801
1.40786271135381
-0.27557481285722
-0.157524843131759
-1.79501347301905
0.708799837509055
-1.29904162754644
0.10734176093449
1.32613142353162
1.68388171017934
-0.530020339980384
0.405142701296634
-0.217072228339256
-0.925709538074013
-2.05616570279576
-0.806681529131718
0.211817523133151
-1.22346575136573
-0.0512926727997759
0.0175157987306167
1.64067463486843
-0.563380291358415
0.031054513384024
0.346740244537523
1.56679904004685
2.37931458634815
-0.247121158334131
-0.988891851065254
-0.993211228599911
0.293596207085716
1.1191545215789
-0.47001166473198
0.403776925906643
1.6368672535241
0.15032182191978
-1.1278783077069
0.632504320604943
1.5286696094202
0.794295669174689
1.3337211628037
1.09029079622239
-1.04193559984948
-0.316485626757054
-0.500336067183221
1.27357039614339
-0.195375722943145
-0.558522972418172
1.27157814597803
-0.89838568243653
1.80342039946106
1.34324629905593
0.71493760629223
-0.557885648685091
-0.605114977086583
-0.161614934989823
-0.880260724724322
0.481062604965363
0.159020336058921
1.22419658716885
0.595428153220604
0.10520803160495
0.331647803861794
-1.04515265475754
-0.0859809569693019
0.399679022206896
0.509120763058773
-1.37875106548041
-0.889519046681853
0.606367573570054
-1.35188605269973
1.41178210005069
0.0473083824133746
-0.00896234100985341
0.555128017519809
-0.770822356166984
-1.21438831299297
0.611858926485684
0.366566820088361
1.57586328356701
-0.375592818448491
-0.164501433487174
2.37622051160684
1.04757188321852
0.510468581080927
-0.982237818817319
-1.10147904891816
0.614335619978905
-1.51412148284856
0.0161204758883151
0.980373726641832
-0.164895747575412
1.74403577366135
1.0985832076312
0.108364117957123
-0.186224763676895
-0.71836751430653
0.195995683559526
0.540206883270238
0.140645419295618
2.20191009527439
1.94373359821053
-0.255658060023931
-0.873680025658483
-0.578206281053865
0.608108441223767
-0.735265237687682
1.59604001375182
-0.019431286013177
-1.19944833742755
0.404502590691221
-0.12287064437167
-0.224190606279791
-1.39867628857576
0.634643172270033
0.616461401337085
-1.6337137633348
0.210795766889308
-1.54703554550322
-0.693781613298238
-0.631690254655994
2.00789125988175
-1.49053547118497
-0.539258647400165
0.802758044369868
-0.11362674710203
-3.10126031223113
0.402035913712079
0.467773401192042
0.411941078293599
0.624074518261339
-0.180327975129207
1.38995228038327
-0.112724820869954
1.37533984682869
2.30745551303858
0.533219290757989
0.0117591445362975
-0.649266166633449
0.641148621956456
-1.96315789159103
0.63713235728433
1.19582071900347
-0.112883604749316
1.60542074014908
-0.340279147867024
0.0507098655692605
-1.28372784632074
0.120784959872641
1.00798167497875
1.43018463391443
0.376552278878312
1.05517240211698
0.144071016609584
0.92170642847134
-1.46311992795102
1.57029003014785
-0.056980139433026
1.35406583582843
0.0111944573635895
1.68831271123939
0.343358435577394
0.0834812105026724
0.645196740143282
0.0263270366183195
0.509178571297145
-0.278062100296058
0.781641029480917
0.54266110702251
0.188146188298542
0.556900022176678
0.506788422907668
-0.146404093414682
-0.250591883080763
0.0105299391141037
-2.76135884983787
-0.59160598082451
1.73483025800006
1.06248642946729
-0.0910601860924242
-1.02112791187658
0.957860344307673
-0.013862671671042
-0.328957799028466
-1.01261863797565
1.41261374619499
-0.0787094390647696
1.6651034274512
1.07011927029447
-0.963395980840491
2.11867538678891
0.29955546769157
-0.28769122530675
0.354935759862412
1.34316721434373
0.587388438249116
0.0591637757774212
-0.643297564403424
-0.457311554684217
0.119621135598063
0.278289866360388
-0.118033806744684
1.42686912943155
-0.295202789798691
-0.142562502766277
-1.1415936112687
-0.670626710481295
0.0851874146687637
1.41158136347798
0.462912202161472
0.0318816618913707
2.44396919299741
1.26688741387655
-1.15443060136539
2.78744033401127
0.666817933708175
-0.261806592836147
0.326479262506965
0.490404585687584
0.515736961009185
-0.628472627906359
1.81253988523453
0.455139752396218
-0.429521665086055
-2.05414538135966
2.85497449822203
-1.40340141865391
0.349371299229538
-0.432967249783257
-0.145480638085461
0.0458283018399443
1.17686070888878
0.505188142040178
2.2007667558383
0.0969885887669993
0.377306657963901
0.501637267260237
1.48723598741184
0.655142520334517
-0.614107133357772
0.214802933080623
0.943849556806892
0.43576652442068
-0.511844856437844
0.745806876237658
0.0977305589457592
1.13428193162772
-0.0192040122636413
1.13539078427424
0.211376758103313
1.01104089190948
0.179929118017009
0.504114209691369
-0.905413931762371
-0.919655830598784
1.17944890263908
0.338736101941274
0.738918902621628
-0.91656892782462
0.118750253083949
0.820878273606262
1.06631739983841
1.819097459169
2.43497903975505
0.526103349043029
-2.00681362757396
-0.539286456087705
-0.435209945998478
-0.963225978168455
-1.55780138864517
0.0779590516277752
-0.384712075591835
0.580714279512442
-0.489068333416731
0.430695833712683
-0.645936245718857
0.0533861329611306
-0.447304623162137
-0.773667302125541
0.986730085568343
-1.8605626299333
0.214245347779267
-1.51995916922882
-0.200229747660651
-0.540448705037847
-0.340785032065521
1.10091505134036
0.634463013461303
-0.982911741495413
-0.419937198618129
0.0840269729913152
-1.13376869864674
0.55694042385869
0.611317237047111
-1.2317069984738
1.24630734337177
1.06354786109691
0.0250293893696508
-0.899185362791797
-0.728322873054763
-0.242751856838779
0.196293196569717
-0.847943112795396
0.111913094729412
-0.340618309062516
1.01793244895333
-1.6728894113933
1.35996996722686
0.459282141138203
-0.740119180420584
-0.878111178072676
-1.80509947696996
-0.938560611187758
1.24061785859544
-0.31900959921071
0.2371361168895
-1.24011613074875
1.06897353388631
-0.604172559781585
0.904331406965437
0.86411061339206
0.178907029642713
-0.883334977028492
0.145756236083715
-1.06385298775371
-0.937611988465441
0.945077607011376
-0.682974729957331
0.558474047165345
-0.125211661479865
-1.25538868644051
1.88525088738192
-0.0418599702317857
0.906360921074443
0.713026223797657
-0.500149765438411
1.17552868892329
1.49426151582242
-0.5687801936176
0.279701657925756
-1.06518415320742
0.442955069892352
-1.83675062540733
0.757756594562022
1.80671811463591
1.31114722529117
-0.523647960190666
1.54973646212159
1.14786295377196
-0.930076564092138
-0.44625420032212
0.519067432804409
-0.873424212386346
-0.764597686193944
-0.51529977204811
-0.0101170969370155
-0.474401381262027
-0.812964858474662
-0.762425488764088
0.707624429593711
0.725379085666641
-1.36787685115548
0.564177994412393
-0.861004304033543
0.569722944073286
-0.0658018961030646
0.958688317346099
1.679931844167
1.33000295889114
0.434922433377774
1.35251170689686
-0.850110129785383
-2.68677338298344
1.52296818648929
2.49454877333995
-0.63944680244007
0.61694562817786
0.639435740689673
2.15695610297502
1.07393136863109
1.41689408134911
-0.150389341241523
-0.117230016374574
0.279190383619133
-0.992625349888556
1.86200982047897
0.72515970678536
-1.03330026193802
-0.282216713204362
-1.64024304261274
-0.560392268705732
1.09167447083563
1.75826141169007
0.0992370402648984
-1.73887727005627
-0.157882814674613
0.518039010172922
-0.652197080827638
0.0786278869103402
-0.381890070531071
1.59034826814667
-0.375514449341408
0.969097778174161
0.191973023557688
-0.219970501126474
0.51055120081223
0.461721931804604
0.0670077532239282
2.27256167764434
-0.147280561166031
-1.35303430039746
1.25986021728396
-0.425676283272971
-2.22642607853273
-0.351081564143014
1.97118019758183
0.890486668958552
-0.451396743311812
1.28754274252337
1.93199760718264
0.570207989558086
-0.635132705717395
-1.53471125849307
-0.0537101494510671
-0.432038894701545
-0.696992502688477
0.458821445855299
2.05194958232335
1.98489190789598
0.378730722241801
0.344605533405896
0.390864933510359
-0.488658059725899
0.584220256278408
0.407656539894418
0.581195717390184
0.731618429848089
0.37950505395463
1.98737791231216
0.334076920456056
1.20056836231979
0.405831147609834
-0.0700038084632725
1.79241963868348
2.51886642499112
0.130299699878124
-0.25310170297986
0.795279728505028
0.705757563323861
-0.0615030082657104
0.112607812369601
-0.623839712270929
-1.1220636169096
-0.637103866880718
0.2772806513811
-0.870757217454322
0.276849446734545
-0.0322452672801754
0.174544477149372
0.57846696261461
-0.236435358488141
0.572842054231232
1.43797935042518
0.457154248775322
0.699226858243403
-1.32233627869906
0.0221395242636719
0.245889074645268
0.419420760401059
1.05532541511881
0.0242428787632991
-0.637495199506326
-1.29092680472254
0.937132166432873
1.10063815548535
1.84608032693898
-1.83224393882368
0.207284921404447
0.221793385709451
0.398069716724691
-1.29181815233114
-1.23924210322768
-0.278807493403334
-0.717527979808713
-0.000636089252286337
-0.359300171752779
-0.557758769955775
0.235602247074117
0.213700060155589
1.56935008344335
-1.49231179830194
-0.126014674396932
-0.345576767876585
0.762738961210642
1.19218919952419
-1.62993076439386
1.14218078945239
-1.95926586368338
-0.513533718002357
-1.70001156648125
-0.702926391416112
-1.05365201956317
-0.690341093699905
0.507300083003743
0.202266937562619
0.891040300385873
0.333026026391353
-0.281166889592015
-0.0340178787474139
-0.196621399191679
-0.194509958348521
-0.909615414535434
-1.11761765361303
1.03489018918196
2.68284341657648
0.601827536994388
1.56384273008145
-0.621677878266298
1.62825827860341
0.762867374934127
0.455421079424952
0.617441738153675
-0.818652869815389
0.607088062768558
-1.28862703609699
0.619192127564567
-0.595456351836022
0.628752078485219
-0.507659299170839
0.653323239934972
-0.577883619612957
0.380861687588286
1.36819384996006
0.927200476023403
-0.616618170625627
-0.424518681830468
1.27747992575046
0.225742425033908
0.601516049897179
-0.417154879253075
0.333797623453804
0.792667255630559
0.678942033424771
0.715584263116418
1.15888220077467
1.68195070458619
0.283581805634487
-1.5040400715357
0.667543759536359
-0.384572429562686
-0.442000942804419
0.15673419825446
0.414218981285627
-0.262176696696712
-1.3380192744501
-0.0859899244427281
-0.351470846132697
-0.562837406641118
-0.40121132547373
0.117006752889574
0.622362064228498
0.518546330863641
1.4336828366475
0.315398862005075
0.00877243758689364
0.619632307499642
-0.221981387143988
0.10543828352481
-0.381053986107716
-0.598040553452415
0.694887871376686
0.600076339991549
0.0608353855329528
0.253323659308441
1.70468111041213
-1.16184339379277
1.79477986768595
-2.45783310176424
-0.613423343318556
0.632043936587169
-0.0364415348904115
-0.162938546504198
-1.11179051371465
-0.405635921023225
-0.756918835199463
0.664647445128514
0.807169557653077
1.52725647968465
2.650382298783
-1.10634865353367
0.556003418506582
1.92272314639951
0.289434543829009
1.27942847948294
2.88333141902851
0.60884117606998
0.238108986700598
0.834594215440449
1.14852912335184
1.34246521620968
-0.927133714534871
0.881206178483975
-0.849427467036186
0.592871488956203
0.196888536404808
-0.437841639803601
0.531908697866715
1.50688572412701
0.859361992865626
0.224205831004913
-1.14958807139538
-0.144890940590331
-0.107646641709058
-0.186410641456437
1.86193002915516
-0.492305763351782
0.214299363046031
0.998027210006827
-0.336203095747379
-1.16793387979891
0.957665410365354
-0.958791559597702
0.685584099145908
0.407338281883993
-0.047282330227138
-0.414270141364015
0.259203369486275
-1.4487644594999
-0.110845642844758
-1.46150113868591
1.64277205848458
1.73500876706901
-0.577755960065473
-1.30621402950969
0.500347172103765
1.29292686269572
0.145638808818233
-0.0224242867093481
1.6938152734231
-1.34056869518313
0.878607523385068
-0.997836384024011
-0.120318624156554
0.0221206181960931
-1.04732480492188
0.460036602363853
-0.156651938036115
0.35258076519086
-0.97911222122064
0.978346814513023
1.46871601614737
-0.894753413335111
0.0946958799766348
1.99617087297996
-0.796370458743386
-0.166514121726223
0.890392115741779
0.58601646396363
-0.00705185887177126
-0.0682095517965264
-0.444555980198678
-0.634269593151751
-0.425043335205839
-0.263209722506871
0.985348143002088
0.232013842939784
-0.899565557834977
-1.22007897375764
-0.573924417992801
1.21434554867446
0.278156301490905
0.909700965433469
0.848192923268524
-2.32275479054328
-1.55439598770861
-1.44067294284047
0.21141468644757
-2.01873712717604
0.0043764430896244
0.722734071789921
1.55037642611603
0.573129122163593
-1.84969699704648
0.722707586223395
0.0450248111650377
0.0318027369959463
-1.68726566365229
-0.0640067574481699
-1.4077334670407
-0.579306337883611
0.843759150007204
0.822657404677278
0.773944679681557
0.563518452771094
0.435830526622101
-0.0277356848247299
-0.427161800370881
-0.0890736818793855
0.645909310335082
0.560253901246811
0.0902155633019613
0.080240324284557
1.23810251672212
-0.938535972623213
1.12497724515101
-0.666784929345233
0.549179293813764
0.505185493116394
-0.641386282791652
0.81259102664501
-0.274853021343343
0.328079388723672
-0.586737712045511
1.35977315922492
0.760882821827586
-0.130065611198264
-0.851740577259172
0.187900835574848
1.50853208609355
0.378548219010445
-0.271704044216417
1.02763963744357
-2.4210415774209
-0.521524865663966
-0.193901378838556
-0.433871413620494
2.09619974233195
-0.794542410676388
-0.0300403472300675
-0.703084596387028
-0.397188235088414
1.12421378619952
-1.23853631815195
-0.828998552378376
-0.357386995626581
-0.331185715166395
0.336439721911262
1.70312591960668
0.851366485135994
-1.40439609735048
0.680470779386075
0.0478667765738785
2.2294153819593
1.65817059148699
0.588940442837562
-0.532058442490763
-1.16867825362527
-0.553762736803978
-0.836427575151523
-0.751600311286357
0.233533713361914
0.339158844037604
0.52768665163057
0.784584400580162
-0.135795897013649
1.30689009249217
-0.350450524226238
0.67139455550037
0.0983510485339612
-0.0369190416504194
0.87436442647447
0.015805281798888
-0.907037905790426
1.79259030488223
0.8789940099478
1.02315934511156
1.31582007401445
0.312015425435076
-0.491026691540525
1.24567387707084
0.413715205559715
-0.11655711982783
0.259913524157557
0.285273056157101
-0.520738145897414
-0.994426017525641
0.738491513970757
0.574998422103006
-0.0606095838318721
1.08963174689241
0.460139914202792
1.5470072410693
-0.969149707044643
0.0872292707990093
0.650991314353236
-0.350604503001228
1.30909314574527
-0.52317199751898
-0.021164032051627
-1.40119096822662
-1.43855764548947
0.155056661789798
-0.454503040078108
0.0705466569838151
-1.27022745636304
0.271670104521854
0.878264084027035
0.792547145975804
0.15564375582309
1.07189085070818
0.994815477860402
-0.340087846943464
0.466282553740211
-1.03726996546939
1.94517539427356
-1.70259982947718
-0.378908421634288
1.26786044616645
2.96432960647819
1.39452408564814
2.52690001168006
-0.0163913598035185
0.900336458972573
0.478566056062586
-0.389646037385771
-0.0932527669592723
-0.570679897393347
0.481565410393533
0.489171321423751
0.0265837362117931
0.316835422612812
-0.830475985558528
-1.21114487005605
-0.436520754880988
-0.314337832404026
-1.20979701891756
-2.00394489892872
0.816169762040166
-1.68968802834437
-1.45559034442711
0.065380258104787
0.7750936185659
-0.540785799610759
-0.643089330344775
-0.751924025973519
-0.96481737906713
-0.132878816326348
1.15856797760688
0.423499932390111
-0.311687558226615
-1.48111132823443
0.397806193618781
0.595312257093616
2.31995322636899
-0.755484234128153
0.47532278805665
1.27209587622391
-0.088261292632834
1.13830181061426
2.30077545436587
-0.207771565680569
1.04541084471871
0.93793032574155
-0.006997882690625
0.327667936862241
-0.415833815394756
-0.869334269500767
1.13843664270358
-0.116128504760751
-0.118881231342362
-0.288819505664194
-1.70842003838587
1.49554208658209
0.595717290015377
1.84132297417524
0.855615588952849
-0.272227050098107
2.47384325333782
0.58524999796225
-0.574738113265655
0.906322910534877
0.831927173684757
0.549687557567672
-2.08852198768961
0.0788930955387909
-0.890961923201774
-0.704034537514508
-0.830162561595901
-0.836281253496255
-0.189247812035465
-2.26290301826772
1.14172472893982
-0.35184833624117
2.03356594971434
1.19576719433348
0.59598237387234
2.03190833362254
2.1420945374948
0.305323440104673
1.26965982001332
0.0684462260574304
-0.780699426302579
-0.917337224649061
0.029257063312449
2.79182010239518
0.599347571202987
-0.811523588207953
-0.00233023522419988
-0.559148325728573
0.319166535436
0.0780452056235223
0.449005519363618
0.572334011934178
-0.30606397831178
0.784389223067053
-1.12786096717525
1.05438974867916
0.0709477372020757
-0.610323416718664
-0.81949558086523
-0.799593990155337
0.906423585451062
2.08010544461264
-0.364726943812659
1.00846615865085
0.211473934006408
1.02198193873033
-0.117200695689161
-0.139505683529717
0.583057755174224
0.891871436713291
0.794652683187311
-0.641345932075171
-0.569919746535429
0.750352381376312
-0.00314006173567838
-0.598277880072113
2.18519998923695
0.689317240969538
1.40436879130641
1.52169401913261
1.02538674651677
0.0573660640885436
0.0946481622470488
1.04614805913048
0.230974357504197
3.45617453870533
0.563008440938001
-0.320375562267099
1.03457462493462
1.35001323142881
0.667410130129771
-0.714058041371589
0.684262039839106
-0.577925706257244
-0.386832673038007
1.29632297671508
1.07620590224191
-1.18151729546682
-1.03494151320447
1.64091021523804
0.439093143083014
-1.06082842392988
1.51416326381931
-0.144931093499581
0.571068553838465
0.766153895888259
-0.15313254184422
-0.0414689711244147
-0.124616383559821
-0.0336447682141476
1.14937095009965
2.80501069811447
0.846178754607413
1.88923172489085
0.426095589025101
-0.731798617945226
-0.341749686862049
-1.37561032431513
0.203646191602395
0.782383290170248
-0.976243949760439
-1.49737533747082
2.1497520975262
0.345433431010343
-0.72382245768854
0.207800083154097
1.19970037728654
0.759364877320968
0.101179456557382
-0.918404377307191
1.5898810132031
-0.179127487846753
-1.67024624064267
1.01879546999041
-0.653965596262358
0.574757686837874
-0.488373145173576
0.594757569476092
-0.239987361832806
1.32051777023192
0.939903077561396
2.1930308762098
-0.732077847253758
0.929819617971733
0.588987269147704
-0.210194786617663
0.541258914740675
0.778182561706555
1.47068216653709
-0.0195502497302285
0.376475714711687
0.151840688068534
0.444560276639515
0.065367449803506
-0.144950509749426
1.31536747700063
-0.562292604663605
-0.383943103668239
2.71833277843484
-0.876317147510394
1.8848319209645
0.807195978171217
1.1800903897959
0.00353313637412653
-0.843337887491127
0.684681672034549
-0.469306752162128
-0.00666776296297819
-0.406647862090008
-0.468258604512256
0.953958433724677
-2.0218505105722
-0.103757921824286
1.05363962638741
-1.97340630432391
-1.83490586938262
-0.916778632757246
1.17718158994335
-1.18246493168426
-0.665360201770319
2.79912865986446
-0.862214921346779
1.0001364274683
0.557819612407336
0.561316868785137
0.661341214230745
-0.335286296556606
0.680534102849218
-0.33573505811908
1.75991905986088
0.0931513621210911
-1.54651998436617
0.0264156221449465
0.700241701554974
-1.06885426536826
-1.18353104478312
0.215846532624837
-2.12415239499073
0.622709823928888
-0.0664985688884313
0.183856142229002
0.574737148051766
0.663707661595032
1.48044637732586
-0.92953492323953
0.953907889581324
0.809139399855595
0.887670794917942
-0.858249568074854
1.4455337404997
1.38429380435974
0.77128064376819
-0.502060014438362
0.758706252226246
-0.875115273666601
-1.14456071983711
0.238759401790466
0.0710308236107005
0.346614895909645
-0.441347217826633
-0.281446181048934
0.317488105671803
1.19118067807363
0.339765297078407
0.0761084550268474
1.02053884465696
0.950569264026313
0.566547525924212
1.02765066205669
0.687005373102213
1.84622521408929
1.35659166995468
1.96462830921289
0.376725888088507
0.0437119203314191
0.424825599601367
0.299039254537251
-1.67872586534721
-0.174795941106755
-1.20324355817923
0.54949363400323
-0.752061864638732
0.577257011208886
0.307448184165521
-0.129712808741333
-0.647400456268372
-1.17833866826166
-0.304652414477007
1.43202555626216
0.219921704693608
0.691867250358584
-0.429514698931349
-1.39276177549708
1.25942456859699
-0.279883167726442
0.377973971012419
-0.505538642600066
0.0381130209600646
-1.13285102238395
-0.785000288435987
-0.55805761495538
2.79735576651513
1.18776599527909
-1.79590126583305
1.27160633838497
-0.248321126874248
0.996630469750027
1.02892460241559
-1.68278222694757
-1.99793627315101
-0.261468591375885
1.23698649520797
-0.327330533500259
0.180806111498642
0.117534355895142
-1.83713995631453
0.771526348089469
-0.0787037023898198
1.09229515475392
0.322529523762757
1.7524387982522
0.395380947669521
-0.657752103176362
-1.10657664389668
-0.461200990839028
-0.0940516258993495
1.73973275301232
0.218652258746685
2.24060046930462
-1.52534593297809
-1.15012063464839
0.626310897489351
-0.976341420738388
-0.0792498164441557
-0.541410314837861
0.369437362119197
1.07739029099841
0.613023408988721
-0.17381398296792
2.67944197915336
0.435274233026442
-1.30298709651253
-0.370902031765239
0.522707770864386
-1.03216868386681
0.141119146754576
0.142186320667605
-0.334494724496482
0.836815921025292
-0.700403376992848
0.859399400041851
-0.444952651013063
-0.719078646023608
-1.12706699240057
1.69167673046836
0.973726487866415
-1.11875581950725
1.65178262872831
0.116107253313003
0.809357690923995
1.19724424768037
-0.13066731019234
1.29136522743827
-0.238993098064704
0.116795871406858
-0.563193128459157
-1.81886417091978
0.283104812854991
-1.32498418793383
0.363175861076743
0.0184641554952181
0.0197881180909394
0.465418402686263
0.103879967294449
1.4599588938328
-1.53104327015417
0.0868646862977885
1.19306836908581
-1.71814368571688
-0.193569626370074
0.925883466370343
-0.0845265447311248
-0.80961048384914
0.372499782136234
-1.00337597296772
-0.149509682636513
-1.30619792378404
0.0270434943054536
0.394224258170337
0.337127194919907
0.528266677437872
-0.0285246517379958
-0.473179554105291
-1.66263146943691
-0.0966835496450395
0.958378128580544
-0.859351328269111
-0.681192630444015
1.40061440014525
1.11747651185502
0.890138439824715
-0.522310321329954
0.938349984052156
1.04074391522038
-1.36314299241365
-0.238910637355841
0.637771699144612
0.85601236648871
1.45683963083275
1.12930570229537
0.368482608492194
1.07822623207548
1.46076053718856
0.152605941064017
1.18183605349329
-0.711960041350785
-0.564038306520716
-0.910357847075378
2.00796711687125
-0.61880366130905
0.424005872856551
-0.101208478476645
0.471097463053492
0.264528620455258
1.15512432901842
1.22585957521835
-0.350266272675456
-0.0534291983654283
-1.68270837274993
1.55016387058722
0.776802105315058
-0.766042477875842
0.520875886680155
-0.627943422364787
-0.853683912659674
-0.917002108176645
0.653819907366052
1.14960206876777
-0.95745737905028
0.270684655707975
0.193849790041529
1.36982673436552
-1.17495102237464
-0.0233513296122931
0.994276488026132
1.10286899991806
-0.853375339290606
1.3838887834173
2.37264205570043
0.977825353831344
0.935346368188063
-1.46105655206416
-0.20715885778096
-0.362385247871416
-0.0793755395844566
0.596081137763171
0.27019434051958
-0.395239601463583
-1.11327843745611
1.04184298036909
-1.03320752215191
1.26515523791851
-0.732698301045445
2.93255820182985
0.493641962654505
-1.98789106385837
1.49521000138981
-0.694667548281331
0.428809621875358
1.34140903976044
-0.114765648393451
3.14374655056042
-0.0238231216618787
-0.0931441479968362
-0.80162790867042
-0.0129494520262355
0.710642359954984
1.39470424126202
1.38244628173109
1.32740088438903
0.75500300764474
0.58936626955172
0.508314287746208
0.767306963910186
0.213717608554685
0.963031772965325
0.493609975466651
0.59164463912441
0.429941316814166
0.827221772465109
-0.3123236874655
-0.195517002722846
2.03203526880509
0.345437516527062
2.60301285031943
0.338280737044374
0.370790739281286
0.0526843261820737
1.25905032265777
-0.18932035956417
0.769776904170242
-1.26458709238723
1.53636828483494
-1.3870555561876
-0.955211396514045
-1.14783512854003
-0.18935825572365
-0.738315187319623
1.09520437351378
1.15458211775683
0.219698643678417
0.528975044709013
-1.19840008449647
-0.847814549757762
-0.0699137517708261
-1.36026289875985
-0.474555706917074
0.0993568767087787
-1.27253124649259
2.47523874637894
-0.869045074456176
1.53315346433384
-0.619302742237891
-0.536775208856324
1.15121258149491
-0.864361973259632
-0.44375024409749
-0.837126179040634
-2.11493915402198
1.58812165675731
1.53000090404606
0.909961629681304
1.20384500024891
-0.559809712282766
0.75002163396154
0.328931980769724
-1.26578953764842
0.870592524601668
1.10206335383698
-0.439099454696774
1.87604540887065
-0.643629123002065
-0.948029252746883
1.50320997974911
0.379965131847582
1.50486565958248
1.4232645706628
-0.961936019574655
-0.340131924037048
2.03438369508388
0.658993840735934
-1.88970885722093
1.00397896552902
2.13852471641117
0.395636197198376
2.07795748008797
-1.16583024314438
-0.172738650575487
1.79129327021809
0.344473410256177
-1.3258208109582
-0.547458901823597
0.770242883045579
0.816590981257668
-0.520179044619872
0.327647378482752
-0.306676420835376
-2.45718564867217
0.701871909315035
-0.395303589747789
0.904881568844678
1.2743339033192
0.0131661749370218
0.356416576501377
0.560319863720807
-0.212706031831913
0.223392422931173
0.510165142415427
-2.07997119075493
0.877758058216616
-0.808767025339671
0.508269835777025
-0.650827267879297
0.327578633114201
-0.455837483582042
0.355004705614666
-0.85896164949673
0.142640839242937
-2.24781540999521
1.90808017302509
0.601271098752773
2.01931685486395
-0.730871436007637
0.0638461556218874
-0.194436549066263
0.177309652964184
1.66477258314314
-0.575979344736178
0.994560456722083
0.544788114084394
1.51007054318957
1.52008289443494
-0.50699831760247
-0.163140403543105
0.303002881767561
0.915890747520765
0.0197449685691105
0.399073084811351
-1.10029724120905
-0.17101164592444
0.402959337333322
1.68166687981295
-0.607565171287589
1.5555535716158
1.1963394790951
2.25067259846317
0.991553197166323
0.729274201651835
-0.675571963107052
1.10822006494384
1.86219636066669
0.906688779083929
-0.131117526150171
-0.701474617113217
0.688255894637659
-0.0788481849166874
-1.13215665843451
-0.688601766589385
-1.09223601158652
0.684938554062918
1.73822262511504
-0.278263923934188
-0.586685012296402
0.66322582115708
0.486435143494676
2.22241745104993
0.0942099241944898
0.334709670604712
2.48971666685545
-0.240703620349895
0.572564614045208
-0.115292479319266
0.117015149321611
-0.655553950141563
-0.94017804439539
1.47957328817613
1.33317601093372
-1.61802794083674
2.1530764284932
0.0748755861589594
1.58136450711869
-0.245791453844039
0.75809236950116
-2.20028214753828
-0.862779318955554
1.53999245453338
-1.8067505637326
0.310588656143805
-0.475215592430755
0.236102773066533
-0.480792270485079
0.0661094370854143
0.0513339653331031
0.870350227284863
-0.274503123044399
0.255475505343117
0.63478703004477
0.123731181191186
0.33070269151185
-0.0297729098906963
-0.537900623999078
-0.0228590756736869
-0.177100322273534
-0.433218656143933
1.67700229329392
1.37783595859116
-0.0588549435999823
-0.685893418364288
-0.541932755728261
-0.0550993689664755
0.792615659714252
-0.0506815201142345
1.3803022314565
-0.210073517135004
1.51263964659406
0.688211767748397
0.330117800362428
-0.489457222326215
0.832862761250627
1.12057241129532
-1.08916691857364
-0.118778131788172
0.996024205295369
0.56043704077477
-0.215234043835082
-1.73039700534181
-0.998721779008703
1.52098920604582
-1.18295113231539
1.16545304831884
0.471752447894694
0.52152962302439
2.01847441981459
-2.45006959808227
-0.365579215645792
0.604923413262584
-0.906205967075294
0.825012061029104
0.34386441748765
-0.730981317934644
0.448799393600229
0.203761773120302
-0.526827946599176
0.106894576420737
0.262398585971323
0.93758705175605
1.65946616777412
0.748854119885458
-0.274313797787694
0.356452032180319
0.588174491059692
0.605642299379316
-0.668176957775758
1.24756991102874
-2.08823956192273
0.322993103241049
-0.619408213749519
-1.51605577603112
-0.784712002279091
0.392257090008783
-1.3946787500195
-0.849698708107236
-0.230663292478985
0.738962756248691
0.750501736770767
-1.07266853133963
2.42654463120339
1.74509383808386
-0.916385290345108
1.33063376482699
1.24734301718006
-2.07313062942515
0.467758878157844
0.547262752795718
-1.08475400076984
0.857723020360938
2.27027292801473
-0.620828604479027
0.0425997312869427
1.60353756098157
1.86064956818401
1.80119413794979
-1.78273167834492
1.34137280558515
1.11500231377321
1.01005556743768
1.12949510920941
0.231663478983245
-0.910600186157816
0.642778323681749
0.410719751050846
1.08976845212338
-1.04583011679231
0.756884036475457
0.453865664421434
1.09929568144464
-0.752359167580719
-0.710268951394506
-1.76189962181715
1.17345374792774
0.793035240772841
1.51243562779931
0.959485394924091
0.172967207088537
1.35003291612831
0.588199917982597
-0.663026397842627
0.521209058200472
-1.68341088294308
0.143895789882601
0.0668985236635268
-0.57463614772137
1.27692387547418
-1.53565646909028
-1.85763746514204
-0.383214393928274
-1.32954289725924
0.44907994627338
-0.114416407608706
0.892644665387077
0.93566334327564
-0.33177179637599
0.477418704204017
1.49899923770678
2.13362758237063
-0.660196181785636
1.68566519106357
0.20625575781748
-1.25934752565243
-0.853347873942899
0.677137371359412
0.707054946569006
-1.07940783008068
-3.02991197097322
0.463452462450891
-0.0104422780741741
-0.0569660320776382
-0.0386725916763706
0.398435821201568
1.93665105619073
-0.210889718875309
0.439912649209729
1.24471089948027
2.13208417120945
-0.78646407100803
-1.11909810412295
1.40329882417147
-0.0986782934811648
0.820611819063661
1.91137888223003
0.161862320094203
0.162468071384171
0.188858058916854
-0.59517343867624
-0.0589969044309453
0.874045562452588
-0.773234692457037
-2.70325907309543
-0.585516460817347
-0.0255074188793836
-0.104897835668983
-0.889050308780531
0.267301626783099
-1.34667829143271
0.420157287133017
0.567258630729205
494.675795970084
-0.583266976426999
-0.445247225940685
-0.0760456120984784
-0.648205052212302
-0.827961035192026
4.51496283484071
0.0252604816071723
-1.10614384794602
2.06548959684704
0.722443594570465
1.61554647261282
-142.168195424141
1.79591318571852
2.4200905293013
-0.747561567141475
-8.93950061414677
-0.7329106263952
1.458000027976
-9.5917399409061
6.18271332595118
1.74123776216634
6.40433493839167
2.61974962464096
0.841028301171063
-5.01936399561107
-6.01445049507901
-0.460462573405715
1.08788483950524
-1.37466549475227
-445.553279649761
-1.09911393792938
-10.5221511285297
-0.905773387282274
2.13728307528037
-0.125745902418657
-3.88795564049788
3.14928575852209
-1.52829996554242
-0.323858600790669
-8.85603466547174
-0.768234098691386
1.01985230779319
